svm_type c_svc
kernel_type linear
nr_class 2
total_sv 2175
rho -1.2477176
label 1 -1
nr_sv 992 1183
SV
-0.49010836904289989 1:0.51300001 2:1 3:0.708 4:0.029999999 5:0.60000002 8:1 43:0.050999999 44:1 49:1 57:1 58:0.028000001 63:1 #
-0.29001625885848997 1:0.465 2:1 3:0.68000001 4:0.0049999999 5:0.333 7:1 43:0.015 44:1 50:1 57:0.68400002 58:0.0099999998 #
-0.29066032356805893 1:0.63999999 2:1 3:0.66900003 4:0.044 5:0.5 9:1 19:1 43:0.089000002 44:1 50:1 57:0.054000001 58:0.44999999 63:1 87:0.167 91:1 94:1 102:2 #
-0.067769665830134926 1:0.255 2:1 3:0.68000001 4:0.0099999998 5:0.667 6:1 43:0.015 44:1 49:1 57:0.69099998 58:0.0049999999 126:1 133:0.88599998 134:0.0080000004 #
0.57908533410937046 1:0.249 2:1 3:0.69499999 4:0.0099999998 5:0.667 9:1 43:0.015 44:1 50:1 57:1 58:0.0070000002 87:0.25 94:1 102:1 128:1 133:0.70599997 163:0.25 170:1 178:3 200:1 209:0.889 242:1 243:1 277:1 285:0.56999999 286:0.0060000001 #
0.90000000000000002 1:0.419 2:1 3:0.76899999 8:1 43:0.029999999 44:1 51:1 57:1 58:0.0080000004 61:1 125:1 133:0.745 134:0.0099999998 137:1 #
0.45266761748377987 1:0.72299999 2:1 3:0.70899999 4:0.0049999999 5:0.333 7:1 43:0.015 44:1 50:1 57:0.69400001 58:0.0099999998 87:0.167 94:1 102:3 #
0.90000000000000002 1:0.73000002 2:1 3:0.68400002 4:0.057999998 5:0.42899999 7:1 19:1 43:0.141 44:1 50:1 57:0.63200003 58:0.098999999 63:1 87:0.167 94:1 102:3 #
0.90000000000000002 1:0.32699999 2:1 3:0.208 4:0.0099999998 5:0.667 6:1 43:0.015 44:1 49:1 57:0.204 58:0.0049999999 91:1 126:1 133:0.046999998 134:0.041999999 #
-0.01832418986082384 1:0.108 2:1 3:0.81699997 4:0.039999999 5:0.61500001 11:1 43:0.066 44:1 51:1 57:0.80800003 58:0.0099999998 61:1 87:0.111 94:1 102:2 128:1 133:0.69499999 134:0.045000002 139:1 163:0.44400001 167:1 168:1 170:0.5 174:1 178:0.5 200:1 209:0.82499999 239:0.048 242:1 243:1 277:1 285:0.91600001 286:0.0049999999 315:0.111 319:1 322:1 330:1 354:1 361:1 362:0.0080000004 391:0.14300001 394:1 395:1 405:0.333 #
-0.55305022849494112 1:0.22499999 2:1 3:0.87900001 4:0.0099999998 5:0.2 8:1 43:0.048999999 44:1 51:1 57:0.493 58:0.034000002 63:1 87:1 93:1 94:1 102:3 124:1 133:1 134:0.017000001 137:1 163:0.28600001 166:0.5 167:0.667 170:1 171:0.5 178:0.5 184:0.5 190:1 #
-0.0033894034353496752 1:0.24600001 2:1 3:0.486 4:0.0080000004 5:0.182 8:1 43:0.046999998 44:1 51:1 57:0.13600001 58:0.057 63:1 87:0.60000002 94:1 102:3 113:1 129:1 133:0.45300001 134:0.017999999 137:1 163:0.208 166:1 167:0.75 168:0.28600001 169:0.25 174:0.25 175:0.125 177:0.125 185:1 187:1 #
-0.15759186863472574 1:0.252 2:1 3:0.81699997 4:0.0099999998 5:0.40000001 11:1 43:0.024 44:1 50:1 57:0.77600002 58:0.0099999998 128:1 133:1 134:0.0080000004 137:1 163:0.667 164:1 170:0.5 178:0.5 200:1 209:0.60000002 239:0.55599999 242:0.5 252:1.5 258:1 277:1 285:0.49399999 286:0.0080000004 315:0.333 319:0.5 328:0.5 #
-0.47018539697182804 1:0.33399999 2:1 3:0.26100001 4:0.02 5:0.26699999 8:1 43:0.075999998 44:1 52:1 57:0.113 58:0.064999998 63:1 87:0.167 91:1 102:4 108:1 129:1 133:0.25600001 134:0.029999999 137:1 163:0.28600001 167:1 169:1 175:1 176:0.333 185:1 #
-0.42762065185302267 1:0.36700001 2:1 3:0.523 4:0.0049999999 5:0.2 7:1 43:0.025 44:1 53:1 57:0.50099999 58:0.0099999998 61:1 87:0.30000001 91:1 94:0.5 102:2 126:1 133:0.098999999 134:0.050000001 #
-0.48892910752643776 1:0.428 2:1 3:0.611 4:0.066 5:0.39300001 6:1 19:1 43:0.175 44:1 49:1 57:0.37 58:0.055 61:1 87:0.5 91:1 126:1 133:0.20100001 134:0.23999999 139:1 #
-0.2909471580514631 1:0.336 2:1 3:0.85399997 4:0.0099999998 5:0.667 6:1 43:0.015 44:1 50:1 57:0.736 58:0.011 87:0.35299999 90:1 91:1 94:0.5 99:0.333 100:0.667 102:0.333 105:0.5 125:1 133:0.82099998 134:0.0049999999 #
-0.069012871492693931 1:0.27200001 2:1 3:1 4:0.0080000004 5:0.667 6:1 43:0.012 44:1 50:1 57:0.96499997 58:0.0080000004 87:0.17900001 90:1 91:1 93:0.333 94:0.5 101:0.333 102:0.667 109:1 125:1 133:0.815 134:0.0049999999 163:0.2 173:1 #
-0.14147549708962961 1:0.20999999 2:1 3:0.699 4:0.0099999998 5:0.28600001 6:1 43:0.035999998 44:1 51:1 57:0.31200001 58:0.022 61:1 129:1 133:0.093000002 134:0.071000002 137:1 163:0.5 178:1 201:1 209:0.29800001 210:0.012 243:1 278:1 285:0.83999997 286:0.0080000004 315:1 #
-0.040215011585883385 1:0.164 2:1 3:0.72600001 4:0.0099999998 5:0.667 9:1 43:0.015 44:1 48:1 57:0.76099998 87:0.264 91:0.60000002 93:0.42899999 94:0.42899999 96:0.2 97:0.167 101:0.5 102:0.47799999 103:0.2 125:1 133:0.57200003 134:0.0060000001 163:0.5 168:0.5 170:1 174:0.5 176:0.5 178:4 202:1 209:0.69800001 210:0.0099999998 239:0.175 240:0.182 242:0.824 243:0.92299998 244:0.26199999 245:0.25 246:0.243 247:0.059 248:0.039000001 249:0.07 250:0.236 251:0.264 252:0.197 253:0.024 254:0.164 255:0.024 257:0.071000002 260:0.028999999 261:0.5 262:0.5 263:1 264:0.5 266:0.667 280:1 285:1 315:0.17900001 318:0.81800002 319:0.81300002 320:0.205 321:0.40000001 322:0.30000001 323:0.090999998 324:0.063000001 325:0.089000002 326:0.15899999 327:0.31099999 328:0.067000002 329:0.177 330:0.25 331:0.050000001 336:0.044 338:1 342:1 #
-0.01445206974326612 1:0.147 2:1 3:0.91299999 4:0.0040000002 5:0.111 7:1 43:0.034000002 44:1 51:1 57:0.60600001 58:0.011 61:1 87:0.53899997 93:1 96:0.5 97:0.5 103:0.5 128:1 133:1 134:0.0070000002 137:1 163:0.61500001 171:0.5 178:2 184:0.5 188:1 200:1 209:0.19 210:0.035 213:1 239:0.5 243:1 278:1 285:0.70700002 286:0.0099999998 315:0.333 318:1 319:1 321:1 327:2 328:1 #
-0.069682784339073003 1:0.237 2:1 3:1 4:0.0060000001 5:0.40000001 6:1 43:0.014 44:1 51:1 57:0.41999999 58:0.013 61:1 87:0.514 91:1 92:0.14300001 93:0.28600001 94:0.2 98:0.28600001 99:0.25 101:1 102:0.57099998 125:1 133:0.50099999 134:0.0060000001 163:0.2 170:1 178:2 202:1 209:0.54500002 210:0.0099999998 242:1 243:1 #
-0.8999976025911286 1:0.45500001 2:1 3:0.454 4:0.0049999999 5:0.333 7:1 43:0.015 44:1 50:1 57:0.47999999 58:0.0089999996 87:0.14300001 94:1 102:2 #
-0.55984135636303167 1:0.65799999 2:1 3:0.41 4:0.090000004 5:0.5 7:1 19:1 43:0.18799999 44:1 51:1 57:1 58:0.052999999 64:1 87:0.333 94:1 102:1 #
-0.027793873489529754 1:0.29499999 2:1 3:0.56900001 4:0.056000002 5:0.64700001 7:1 43:0.088 44:1 50:1 57:0.58099997 58:0.0099999998 87:0.2 94:1 102:2 128:1 133:0.405 134:0.014 137:1 163:0.40700001 166:0.5 173:0.1 178:0.1 185:1 205:1 209:0.33500001 210:0.094999999 215:1 239:0.44 243:1 244:0.2 245:0.333 246:0.25 250:0.40000001 251:0.75 252:0.60000002 254:0.25 265:1 #
-0.076344225075826069 1:0.244 2:1 3:0.58499998 4:0.011 5:0.417 11:1 43:0.025 44:1 50:1 57:0.375 58:0.016000001 128:1 133:0.50400001 134:0.012 137:1 163:0.667 178:1 200:1 209:1 239:0.17200001 242:0.667 243:1 244:0.333 247:0.333 249:0.333 252:0.333 254:0.60000002 260:0.2 261:1 277:1 285:0.212 286:0.011 315:0.333 337:1 #
-0.22063311345087674 1:0.147 2:1 3:0.43099999 4:0.0099999998 5:0.417 11:1 43:0.024 44:1 50:1 57:0.71399999 58:0.0060000001 87:0.333 101:1 128:1 133:1 134:0.0040000002 137:1 163:0.333 170:1 178:2 200:1 209:0.42500001 239:0.14300001 244:0.2 245:0.167 246:0.14300001 250:0.333 251:0.167 254:0.14300001 277:1 285:0.46900001 286:0.0040000002 315:0.40000001 318:1 319:1 #
-0.1595030433169248 1:0.32800001 2:1 3:0.30399999 4:0.02 5:0.2 8:1 43:0.101 44:1 48:1 57:1 58:0.0089999996 61:1 125:1 133:0.838 134:0.011 137:1 203:1 209:0.384 210:0.024 215:1 239:0.145 242:1 243:0.5 244:0.333 245:0.333 248:0.5 249:0.082999997 250:0.333 251:0.090999998 253:0.333 255:0.25 262:1 264:1 #
-0.53206865886300403 1:0.35100001 2:1 3:1 4:0.0099999998 5:0.667 6:1 43:0.015 44:1 49:1 57:0.28999999 58:0.017000001 87:0.375 94:1 102:4 126:1 133:0.296 134:0.033 163:0.75 #
-0.1429007274362227 1:0.097999997 2:1 3:0.74199998 4:0.0099999998 5:0.667 9:1 43:0.015 44:1 50:1 57:1 58:0.0070000002 87:0.30000001 94:1 101:0.5 102:1 128:1 133:0.884 163:0.2 170:1 172:1 173:0.5 178:1.5 179:1 205:1 209:0.86699998 239:0.2 242:1 243:1 276:1 285:0.74199998 315:0.5 322:1 330:1 353:1 361:0.713 362:0.0049999999 391:0.2 395:1 404:0.667 #
-0.13509950899728182 1:0.27599999 2:1 3:0.722 4:0.0099999998 5:0.667 6:1 43:0.015 44:1 49:1 57:0.722 58:0.0049999999 126:1 133:0.47299999 134:0.015 163:0.28600001 170:1 178:2 #
0.054246310187161736 1:0.30399999 2:1 3:0.91799998 4:0.0089999996 5:0.667 10:1 43:0.013 44:1 53:1 57:0.71100003 87:0.43799999 90:1 91:0.5 93:1 99:0.333 100:1 110:1 111:1 124:1 133:0.79900002 163:0.19599999 164:0.14300001 166:1 167:0.69199997 168:0.31600001 169:0.278 170:0.23100001 172:0.154 173:0.233 174:0.292 175:0.25 176:0.26100001 177:0.14300001 178:0.138 179:0.17399999 185:1 187:1 190:1 201:1 209:1 210:0.0040000002 239:0.17200001 242:0.92900002 243:0.917 244:0.28999999 245:0.107 247:0.071000002 250:0.205 251:0.052999999 252:0.105 253:0.30399999 256:0.125 260:0.056000002 261:1 262:1 265:1 266:1 278:1 285:-0.0040000002 286:2 315:0.41499999 319:0.75 320:0.182 321:0.222 322:0.167 326:0.071000002 327:0.214 328:0.125 329:0.273 337:1 #
0.12049367128915814 1:0.329 2:1 3:1 4:0.017999999 5:0.69999999 11:1 43:0.025 44:1 52:1 57:0.62 58:0.028000001 63:1 87:0.221 90:1 91:1 92:0.18799999 93:0.214 94:0.28600001 97:0.052999999 98:0.15000001 99:0.15000001 100:0.214 101:2 102:0.34999999 109:0.667 111:1 124:1 133:0.50099999 163:0.133 165:1 166:0.60000002 167:0.917 168:0.125 169:0.167 171:0.2 172:0.082999997 173:0.133 174:0.167 175:0.167 176:0.090999998 177:0.1 178:0.067000002 179:0.071000002 181:0.40000001 184:0.1 185:1 187:1 190:1 201:1 209:0.36899999 210:0.0070000002 239:0.25 244:0.333 246:0.5 248:1 249:0.25 250:0.333 254:0.333 255:0.5 266:1 278:1 285:0.50400001 286:0.0099999998 #
0.14326344609466971 1:0.32100001 2:1 3:0.82300001 4:0.021 5:0.57099998 11:1 43:0.035999998 44:1 51:1 57:0.79500002 58:0.021 63:1 87:0.42899999 90:1 91:1 93:1 99:1 101:1 124:1 133:0.986 163:0.227 166:1 167:1 168:0.333 169:0.167 173:0.23100001 174:0.333 175:0.1 176:0.090999998 177:0.42899999 180:0.5 185:1 190:1 201:1 209:1 210:0.0040000002 239:0.31 242:0.5 243:1 244:0.167 245:0.28600001 246:0.5 250:0.25 251:0.2 252:0.1 253:0.2 254:0.111 261:1 278:1 285:0.82800001 286:0.0099999998 315:0.178 318:0.85699999 319:0.875 320:0.28600001 321:0.082999997 322:0.2 323:0.14300001 324:0.125 325:0.28600001 326:0.167 327:0.044 328:0.13600001 329:0.294 330:0.090999998 331:0.071000002 336:0.059 337:1 338:1 #
0.15390276383474605 1:0.33399999 2:1 3:1 4:0.024 5:0.64300001 6:1 43:0.037 44:1 52:1 57:0.324 58:0.016000001 61:1 87:0.435 90:0.85699999 91:0.71399999 92:0.090999998 93:0.30000001 94:0.14300001 97:0.125 98:0.063000001 99:0.375 100:0.25 101:0.55599999 102:0.125 109:0.5 111:1 114:1 129:1 133:0.55299997 134:0.041000001 139:1 163:0.20999999 165:0.5 166:0.912 167:0.70700002 168:0.16500001 169:0.382 170:0.38999999 171:0.059 172:0.048999999 173:0.043000001 174:0.104 175:0.25799999 176:0.22 177:0.14 178:0.242 179:0.035999998 181:0.071000002 184:0.041000001 185:1 186:0.333 187:0.333 188:0.5 189:0.5 190:0.80000001 201:1 209:0.331 210:0.0080000004 239:0.667 240:1 244:0.5 249:1 250:1.5 254:1 278:1 285:0.44999999 286:0.012 315:0.44600001 318:0.85699999 319:0.5 320:0.167 321:0.5 324:0.25 325:0.333 326:0.071000002 327:0.46700001 328:0.333 331:0.14300001 333:0.125 #
0.078614416731076456 1:0.17399999 2:1 3:0.96200001 4:0.026000001 5:0.69999999 11:1 43:0.037 44:1 52:1 57:0.67799997 58:0.035 63:1 87:0.14300001 88:0.056000002 90:0.95700002 91:0.90499997 92:0.2 93:0.28600001 94:0.111 97:0.078000002 98:0.118 99:0.12 100:0.086999997 101:0.162 102:0.096000001 104:0.048 105:0.035 108:0.064999998 109:1 110:1 111:1 114:0.5 124:1 133:0.13 163:0.141 166:0.917 167:0.778 168:0.115 169:0.28600001 170:0.45500001 171:0.082999997 172:0.222 173:0.147 174:0.090999998 175:0.14300001 176:0.152 177:0.14300001 178:0.229 179:0.2 184:0.044 185:1 186:1 187:1 190:1 201:1 209:1 210:0.0040000002 239:0.46200001 244:1 245:0.5 249:0.333 250:1 251:0.5 252:0.333 255:0.333 278:1 285:0.098999999 286:0.066 315:0.244 318:0.85699999 319:0.69999999 320:0.273 321:0.333 322:0.333 323:0.14300001 324:0.30000001 325:0.30399999 326:0.259 327:0.26899999 328:0.15800001 329:0.167 330:0.292 331:0.273 336:0.2 342:1 #
-0.025845900210607974 1:0.142 2:1 3:0.77200001 4:0.15700001 5:0.60799998 7:1 43:0.259 44:1 50:1 57:0.68599999 58:0.011 87:0.45199999 90:1 91:0.5 93:0.5 94:0.5 99:0.2 100:0.5 101:0.2 102:0.2 110:1 111:1 112:1 127:1 133:0.94 134:0.032000002 139:1 163:0.184 164:0.25 166:1 167:0.70599997 168:0.273 169:0.31600001 170:0.214 172:0.118 173:0.206 174:0.241 175:0.242 176:0.23100001 177:0.15800001 178:0.121 179:0.148 185:1 187:1 190:1 204:1 209:1 210:0.029999999 213:1 239:0.17299999 242:0.92900002 243:0.917 244:0.273 245:0.133 247:0.071000002 250:0.191 251:0.097999997 252:0.097999997 253:0.36000001 256:0.111 260:0.048 261:1 262:1 265:1 266:1 281:1 285:-0.121 286:32 291:1 315:0.39300001 318:0.5 319:0.75 320:0.14300001 321:0.154 322:0.14300001 325:0.052999999 326:0.052999999 327:0.15000001 328:0.2 329:0.18799999 337:1 339:1 #
-0.088473225864900293 1:0.23999999 2:1 3:0.51099998 4:0.0099999998 5:0.40000001 11:1 43:0.025 44:1 51:1 57:0.35600001 58:0.014 61:1 87:0.222 90:0.75 91:1 92:0.167 93:0.5 94:1 97:0.14300001 98:0.125 99:0.125 111:1 114:1 124:1 133:0.97899997 163:0.16 166:0.94700003 167:0.83999997 168:0.13600001 169:0.278 170:0.094999999 171:0.052999999 174:0.109 175:0.204 176:0.132 177:0.171 178:0.07 181:0.118 184:0.028999999 185:1 187:0.75 190:1 201:1 209:0.58700001 210:0.0040000002 239:0.23800001 242:0.889 243:0.833 244:0.40000001 245:0.45500001 246:0.333 247:0.111 248:0.167 249:0.14300001 250:0.214 251:0.333 252:0.107 253:0.182 254:0.222 255:0.182 260:0.14300001 261:1 266:1 278:1 285:1 286:0.0049999999 315:0.178 318:1 319:1 320:0.42899999 321:0.5 326:0.375 327:0.14300001 328:0.25 337:1 #
-0.15427208612407206 1:0.126 2:1 3:0.92199999 4:0.0080000004 5:0.40000001 11:1 43:0.02 44:1 51:1 57:0.301 58:0.023 61:1 87:0.26300001 90:0.80000001 91:0.5 93:0.125 97:0.063000001 99:0.059 101:0.167 102:0.118 109:1 111:1 124:1 133:0.55699998 163:0.21600001 166:0.778 167:0.52200001 168:0.14 169:0.212 170:0.056000002 171:0.056000002 172:0.044 173:0.018999999 174:0.1 175:0.229 176:0.039999999 177:0.222 178:0.039000001 179:0.033 184:0.032000002 185:1 186:1 187:1 188:0.333 190:1 201:1 209:1 210:0.0040000002 239:0.235 240:0.056000002 241:0.5 242:0.85699999 243:0.704 244:0.34 245:0.324 246:0.333 247:0.14300001 248:0.148 249:0.18000001 250:0.38699999 251:0.322 252:0.214 253:0.25600001 254:0.26699999 255:0.119 257:0.15000001 260:0.079999998 261:1 262:0.75 263:1 265:1 266:1 278:1 285:0.78799999 286:0.0089999996 315:0.18700001 316:0.167 318:0.81800002 319:0.80000001 320:0.154 321:0.125 322:0.090999998 325:0.14300001 326:0.235 327:0.114 328:0.147 329:0.23999999 330:0.086000003 331:0.067000002 332:0.125 337:0.667 338:1 342:1 #
-0.2257485315698283 1:0.205 2:1 3:1 4:0.0060000001 5:0.40000001 10:1 43:0.016000001 44:1 51:1 57:0.99599999 58:0.0060000001 61:1 87:0.25 88:0.059999999 90:0.815 91:0.722 92:0.161 93:0.273 94:0.105 95:0.075999998 96:0.061999999 97:0.074000001 98:0.139 99:0.236 100:0.13 101:0.101 102:0.086000003 103:0.054000001 104:0.014 105:0.029999999 107:0.033 108:0.048999999 109:0.94700003 110:0.5 111:0.28600001 112:1 113:0.5 114:0.93300003 124:1 133:0.189 163:0.23999999 166:1 167:1 169:0.2 175:0.125 176:0.222 177:0.42899999 185:1 187:1 190:1 201:1 209:0.509 210:0.0060000001 239:0.28 242:1 243:0.5 245:0.2 246:0.5 248:0.5 249:0.333 251:0.25 252:0.111 253:0.125 254:0.25 255:0.5 261:1 266:1 278:1 285:0.243 286:0.026000001 #
0.14527925187204155 1:0.74400002 2:1 3:0.329 4:0.029999999 5:0.46200001 8:1 43:0.066 44:1 53:1 57:0.127 58:0.025 61:1 87:0.31799999 90:1 97:0.25 100:0.5 102:0.5 109:1 124:1 133:0.090999998 134:0.127 139:1 163:0.833 169:1 170:1 173:1 175:2 177:1 178:3 #
0.033805903830962589 1:0.66000003 2:1 3:1 4:0.013 5:0.42899999 7:1 43:0.030999999 44:1 50:1 57:0.25600001 58:0.033 87:0.333 90:1 91:1 101:1 128:1 133:0.98100001 134:0.017999999 139:1 163:0.71399999 168:0.5 170:1 174:0.5 178:2 #
0.1219341398918309 1:0.40400001 2:1 3:0.75999999 4:0.0099999998 5:0.185 8:1 43:0.055 44:1 48:1 57:0.82700002 58:0.018999999 61:1 87:0.773 90:0.333 93:0.5 99:0.25 100:0.25 128:1 133:0.495 134:0.030999999 139:1 163:0.389 168:0.333 169:0.5 170:1 171:1 173:0.333 174:0.25 175:0.667 178:0.667 184:0.5 #
0.062204000721931801 1:0.50400001 2:1 3:0.52100003 4:0.017999999 5:0.60000002 7:1 43:0.030999999 44:1 50:1 57:0.38299999 58:0.0080000004 87:0.26499999 89:1 91:1 93:0.667 94:0.25 99:0.5 101:1 102:0.333 127:1 133:0.31999999 134:0.034000002 139:1 163:0.80000001 169:1 170:1 175:2 177:1 178:1 #
0.17447884578033901 1:0.465 2:1 3:1 4:0.018999999 5:0.60000002 7:1 43:0.032000002 44:1 50:1 57:0.523 58:0.012 87:0.28299999 90:1 91:0.5 93:0.167 94:0.40000001 96:0.5 97:0.333 99:0.222 100:0.111 101:0.125 102:0.222 103:0.5 109:1 114:1 127:1 133:0.236 134:0.088 139:1 163:0.2 170:1 178:3 #
-0.04021720656514656 1:0.435 2:1 3:0.39399999 4:0.029999999 5:0.5 8:1 43:0.061000001 44:1 51:1 57:0.51999998 58:0.0080000004 61:1 125:1 133:0.77899998 134:0.02 139:1 #
-0.20036744901883016 1:0.47600001 2:1 3:0.46900001 4:0.029999999 5:0.333 8:1 43:0.090999998 44:1 51:1 57:0.447 58:0.041000001 63:1 125:1 133:0.65600002 134:0.028000001 137:1 #
-0.16985976037083916 1:0.41499999 2:1 3:0.40000001 4:0.109 5:0.5 9:1 19:1 43:0.226 44:1 52:1 57:0.51499999 58:0.026000001 61:1 87:0.2 92:1 98:1 125:1 133:0.333 134:0.15000001 139:1 163:0.077 166:1 168:0.2 174:0.2 #
0.58003514495424646 1:0.289 2:1 3:1 4:0.0049999999 5:0.40000001 10:1 43:0.012 44:1 53:1 57:0.191 87:0.13500001 90:1 91:1 92:0.214 93:0.40700001 94:0.278 97:0.111 98:0.229 99:0.46000001 100:0.081 102:0.243 108:0.052999999 109:1 113:1 124:1 133:0.47799999 163:0.222 164:0.18799999 166:0.81800002 167:0.76899999 168:0.167 169:0.32499999 170:0.44400001 171:0.13600001 172:0.039000001 173:0.092 174:0.133 175:0.28299999 176:0.102 177:0.243 178:0.303 179:0.048999999 181:0.1 184:0.105 185:0.75 186:1 187:0.5 189:0.5 190:1 201:1 209:0.58499998 210:0.0040000002 239:0.16599999 241:1 242:0.88499999 243:0.727 244:0.122 245:0.32300001 246:0.23100001 247:0.039000001 248:0.046 249:0.119 250:0.121 251:0.21699999 252:0.14300001 253:0.162 254:0.15899999 255:0.028999999 256:0.067000002 257:0.071000002 259:0.125 260:0.028999999 261:1 262:1 263:0.75 264:1 265:1 266:0.75 278:1 285:0.97100002 286:0.0049999999 315:0.24600001 317:0.667 318:0.69199997 319:0.73299998 320:0.116 321:0.324 322:0.138 323:0.23100001 324:0.067000002 325:0.15700001 326:0.104 327:0.28600001 328:0.38 329:0.27000001 330:0.25999999 331:0.044 332:0.2 333:0.067000002 336:0.15000001 340:1 342:1 355:1 361:0.74199998 362:0.0060000001 365:1 391:0.41800001 392:0.333 394:0.333 395:0.75 396:0.30000001 397:0.125 398:0.667 400:0.25 401:0.28600001 402:0.42899999 403:0.214 404:0.23100001 405:0.89999998 406:0.64300001 407:0.111 409:0.167 412:0.25 413:1 417:1 418:0.333 #
0.90000000000000002 1:0.31099999 2:1 3:1 4:0.0099999998 5:0.667 10:1 43:0.015 44:1 53:1 57:0.97100002 87:0.15700001 90:1 91:0.81800002 92:0.292 93:0.182 94:0.294 96:0.090999998 97:0.1 98:0.17900001 99:0.167 100:0.18799999 101:0.048 102:0.161 103:0.111 109:1 110:0.667 114:1 124:1 133:0.92199999 163:0.12 166:1 167:1 169:0.25 170:0.333 173:0.052999999 175:0.25 176:0.31299999 177:0.333 178:0.15800001 185:1 186:1 187:1 190:1 201:1 209:0.972 210:0.0049999999 239:0.221 242:0.84600002 243:0.86699998 244:0.317 245:0.25 246:0.114 247:0.077 249:0.039999999 250:0.243 251:0.21600001 252:0.233 253:0.273 254:0.093000002 255:0.044 257:0.039000001 260:0.075000003 261:1 262:1 265:1 266:1 278:1 285:0.98100001 286:0.0099999998 315:0.15099999 316:0.152 318:0.80599999 319:0.84500003 320:0.162 321:0.198 322:0.064000003 323:0.139 324:0.085000001 325:0.115 326:0.17200001 327:0.154 328:0.146 329:0.211 330:0.13500001 331:0.067000002 332:0.039999999 333:0.072999999 335:0.111 336:0.11 337:1 338:1 339:0.5 342:0.778 #
0.61876130677701235 1:0.25099999 2:1 3:0.80500001 4:0.0099999998 5:0.40000001 10:1 43:0.024 44:1 53:1 57:1 87:0.163 90:0.80000001 91:0.85699999 93:0.28600001 96:0.14300001 97:0.167 99:0.059 100:0.46700001 103:0.1 109:1 111:1 113:1 114:1 124:1 133:0.14399999 163:0.13 164:0.14300001 166:0.89399999 167:0.80699998 168:0.138 169:0.23899999 170:0.34999999 171:0.106 172:0.175 173:0.132 174:0.119 175:0.16 176:0.092 177:0.086000003 178:0.189 179:0.139 181:0.077 182:1 183:0.167 184:0.064999998 185:1 186:0.667 187:0.40000001 188:0.667 190:1 201:1 209:0.773 210:0.0049999999 239:0.236 241:1 242:0.71100003 243:0.66100001 244:0.175 245:0.064999998 246:0.105 247:0.052999999 248:0.016000001 249:0.081 250:0.20999999 251:0.064999998 252:0.17900001 253:0.23199999 254:0.097999997 255:0.012 257:0.022 260:0.030999999 261:1 262:1 263:1 264:1 265:0.333 266:0.5 278:1 285:0.85600001 286:0.0089999996 315:0.163 318:0.85699999 319:0.833 320:0.222 321:0.235 322:0.222 323:0.071000002 324:0.082999997 325:0.138 326:0.125 327:0.17200001 328:0.107 329:0.15000001 330:0.107 331:0.052999999 333:0.090999998 336:0.056000002 337:1 338:0.5 339:1 341:1 342:1 355:1 361:0.79900002 362:0.0099999998 365:1 391:0.255 394:0.333 396:0.125 397:0.25 398:0.25 399:0.333 402:0.125 403:0.125 404:0.14300001 406:0.25 412:0.25 413:0.5 #
0.26213517934582459 1:0.294 2:1 3:0.68099999 4:0.0089999996 5:0.667 10:1 43:0.013 44:1 53:1 57:0.801 87:0.38600001 88:0.333 90:1 91:0.625 92:0.222 93:0.167 94:0.333 96:0.125 97:0.167 98:0.1 99:0.090999998 100:0.5 102:0.333 103:0.125 109:1 124:1 133:0.60600001 163:0.226 166:1 167:0.92900002 168:0.52899998 169:0.64300001 172:0.071000002 173:0.046 174:0.38100001 175:0.47600001 176:0.059 177:0.154 179:0.067000002 181:0.333 185:1 186:1 187:0.75 190:1 201:1 209:0.58600003 210:0.0049999999 239:0.26800001 242:0.778 243:0.76899999 244:0.094999999 245:0.53299999 246:0.375 247:0.111 248:0.077 249:0.039000001 250:0.077 251:0.61500001 253:0.059 254:0.28 255:0.050000001 256:0.2 257:0.2 260:0.059 261:1 262:1 263:1 265:1 266:1 278:1 285:0.61500001 286:0.0099999998 315:0.67299998 316:0.333 318:0.46200001 319:0.182 320:0.296 321:0.154 322:0.2 324:0.273 325:0.32300001 326:0.273 327:0.303 328:0.333 329:0.063000001 330:0.412 331:0.18799999 332:0.111 333:0.333 336:0.067000002 337:1 #
0.33848773045714214 1:0.26199999 2:1 3:0.75999999 4:0.035 5:0.69999999 10:1 43:0.050000001 44:1 53:1 57:0.59500003 87:0.46399999 90:1 91:0.5 93:0.5 94:0.5 99:0.2 100:0.60000002 102:0.2 110:1 111:1 112:1 124:1 133:0.94199997 163:0.186 164:0.25 166:1 167:0.70599997 168:0.28600001 169:0.278 170:0.214 172:0.118 173:0.206 174:0.259 175:0.226 176:0.23100001 177:0.177 178:0.125 179:0.148 185:1 187:1 190:1 201:1 209:1 210:0.0040000002 239:0.175 242:0.92900002 243:0.917 244:0.28099999 245:0.133 247:0.071000002 250:0.19499999 251:0.1 252:0.097999997 253:0.36000001 256:0.111 260:0.050000001 261:1 262:1 265:1 266:1 278:1 285:-0.0040000002 286:2 315:0.40000001 318:0.333 319:0.75 320:0.154 321:0.182 322:0.14300001 325:0.056000002 326:0.056000002 327:0.167 328:0.2 329:0.2 337:1 339:1 355:1 361:0.741 362:0.035 367:1 391:0.25 393:1 394:1 395:0.5 396:0.25 397:0.5 400:0.5 401:0.25 402:0.40000001 403:0.2 405:0.2 407:0.5 412:0.333 #
-0.23818506007216944 1:0.234 2:1 3:0.38299999 4:0.0099999998 5:0.667 9:1 43:0.014 44:1 52:1 57:0.611 87:0.28999999 90:0.667 91:0.80000001 92:0.333 93:0.60000002 94:0.333 95:0.333 97:0.25 98:0.14300001 99:0.5 100:0.333 102:0.375 108:0.2 110:0.5 111:1 124:1 133:0.53899997 163:0.20900001 164:0.125 165:1 166:0.86500001 167:0.741 168:0.329 169:0.46900001 170:0.26499999 171:0.054000001 172:0.037 173:0.089000002 174:0.303 175:0.289 176:0.111 177:0.204 178:0.14399999 179:0.017999999 180:0.052999999 184:0.057999998 185:0.85699999 186:0.5 187:1 188:1 189:1 190:1 201:1 209:1 210:0.0020000001 239:0.219 240:0.052999999 242:0.80000001 243:0.875 244:0.30500001 245:0.271 246:0.039000001 247:0.12 249:0.056000002 250:0.243 251:0.296 252:0.14300001 253:0.41499999 254:0.1 256:0.067000002 260:0.079000004 261:1 262:1 265:1 266:1 278:1 285:0.39899999 286:0.0089999996 315:0.52499998 317:1 318:0.80000001 320:0.28600001 321:0.60000002 322:0.5 324:0.5 325:0.14300001 326:0.125 327:0.5 328:0.25 330:0.125 331:0.333 337:1 340:1 #
-0.21501446261028279 1:0.164 2:1 3:0.84299999 4:0.0099999998 5:0.40000001 10:1 43:0.024 44:1 53:1 57:1 87:0.13 90:0.889 91:0.95200002 92:0.26300001 93:0.089000002 94:0.182 95:0.074000001 96:0.024 97:0.046 98:0.20299999 99:0.134 100:0.20299999 101:0.132 102:0.145 103:0.017999999 105:0.082999997 108:0.056000002 109:1 110:1 111:1 114:0.80000001 124:1 133:1 163:0.178 165:1 166:0.90899998 167:0.78600001 168:0.183 169:0.31900001 170:0.237 171:0.029999999 172:0.035999998 173:0.097999997 174:0.17900001 175:0.20900001 176:0.191 177:0.226 178:0.156 179:0.022 180:0.046 181:0.054000001 183:0.082999997 184:0.021 185:1 186:1 187:0.833 188:1 189:1 190:0.80000001 201:1 209:0.25400001 210:0.016000001 239:0.234 240:0.14300001 242:0.833 243:0.815 244:0.35299999 245:0.182 246:0.40000001 248:0.037 249:0.25999999 250:0.405 251:0.12800001 252:0.086000003 253:0.192 254:0.208 255:0.052999999 261:1 262:1 266:1 278:1 285:0.37799999 286:0.021 315:0.45500001 318:1 319:1 320:0.167 321:0.333 326:0.14300001 327:0.375 328:0.40000001 340:1 355:1 361:0.90200001 362:0.0089999996 365:1 391:0.472 394:0.80000001 395:1 396:0.30000001 397:0.42899999 398:0.5 399:0.2 402:0.45500001 403:0.182 404:0.42899999 406:0.417 412:0.14300001 417:1 #
0.043679566376169723 1:0.48899999 2:1 3:0.65799999 4:0.035999998 5:0.30399999 9:1 19:1 43:0.122 44:1 50:1 57:0.252 58:0.12 61:1 87:0.26100001 88:0.1 90:0.75 91:0.90899998 92:0.36700001 93:0.53899997 94:0.15000001 95:0.25 97:0.21600001 98:0.31400001 99:0.42899999 100:0.115 101:0.15800001 102:0.222 108:0.133 109:1 110:0.5 111:0.667 112:1 114:1 129:1 133:-0.033 134:24 139:1 163:0.391 166:1 167:0.25 168:0.25 169:0.667 170:0.40000001 172:0.375 173:0.45500001 174:0.23100001 175:0.273 177:0.42899999 178:0.333 179:0.375 180:0.2 182:0.5 185:1 #
0.40583794484653213 1:0.43200001 2:1 3:0.31099999 4:0.025 5:0.59100002 7:1 43:0.041999999 44:1 50:1 57:0.175 58:0.017000001 87:1 112:1 129:1 133:0.22499999 134:0.037999999 139:1 #
0.083857752659016183 1:0.44499999 2:1 3:1 4:0.015 5:0.28600001 8:1 43:0.052999999 44:1 49:1 57:0.52399999 58:0.041999999 61:1 87:0.58600003 90:0.667 91:1 92:0.2 93:0.25 98:0.40000001 99:0.2 100:0.2 101:0.5 113:1 129:1 133:0.73500001 134:0.029999999 139:1 163:0.667 167:0.5 168:0.14300001 169:0.25 174:0.111 175:0.375 176:0.333 177:0.5 #
0.0011807974161898312 1:0.41600001 2:1 3:1 4:0.012 5:0.28600001 8:1 43:0.044 44:1 49:1 57:0.433 58:0.041000001 61:1 87:0.57099998 90:0.5 91:1 92:0.167 93:0.40000001 98:0.333 99:0.333 100:0.5 101:0.40000001 113:1 129:1 133:0.42899999 134:0.041999999 139:1 163:0.60399997 167:0.5 168:0.25 169:0.25 174:0.2 175:0.333 176:0.28600001 177:0.40000001 #
0.067310910718356667 1:0.41 2:1 3:0.90200001 4:0.0049999999 5:0.2 7:1 43:0.024 44:1 50:1 57:0.28799999 58:0.029999999 87:1 129:1 133:0.48500001 134:0.017999999 137:1 163:1 #
-0.066162811009926686 1:0.226 2:1 3:0.903 4:0.02 5:0.23800001 8:1 43:0.085000001 44:1 51:1 57:0.183 58:0.048 61:1 87:0.5 94:1 102:1 129:1 133:0.78100002 134:0.034000002 139:1 163:0.333 175:2 178:3 200:1 209:1 210:0.027000001 213:1 239:0.167 #
-0.14011865186630662 1:0.375 2:1 3:0.66399997 4:0.029999999 5:0.60000002 7:1 43:0.050000001 44:1 50:1 57:0.66000003 58:0.0099999998 87:0.139 90:0.833 91:0.80000001 92:0.111 93:0.25 94:0.125 95:0.167 96:0.2 97:0.273 98:0.048 99:0.191 100:0.2 101:0.125 102:0.13600001 103:0.154 105:0.111 108:0.167 109:1 110:1 128:1 133:1 134:0.023 139:1 163:0.80000001 168:1 169:1 171:1 174:1 175:1.5 178:2 184:1 #
0.033393093203175454 1:0.206 2:1 3:0.48699999 4:0.003 5:0.14300001 7:1 43:0.024 44:1 51:1 57:0.171 58:0.018999999 61:1 87:0.317 90:1 91:0.333 92:0.2 94:0.2 97:0.090999998 98:0.273 100:0.2 101:0.14300001 102:0.090999998 112:1 113:1 114:1 128:1 133:0.067000002 136:1 205:1 209:0.097000003 210:0.033 213:1 239:0.26300001 242:1 244:0.5 245:0.667 249:0.5 250:0.333 251:1 257:1 261:1 278:1 285:1 286:0.003 315:0.21600001 316:0.111 318:0.875 319:0.875 320:0.177 321:0.273 325:0.050000001 326:0.211 327:0.2 328:0.14300001 329:0.18799999 337:1 339:1 342:1 #
-0.21017520416485397 1:0.23800001 2:1 3:0.56800002 4:0.0049999999 5:0.2 7:1 43:0.025 44:1 50:1 57:0.122 58:0.045000002 87:0.352 90:0.889 91:0.333 93:0.2 97:0.125 98:0.118 99:0.18799999 100:0.067000002 101:0.125 109:1 110:1 111:0.5 114:1 128:1 133:1 134:0.0060000001 137:1 163:0.727 168:1 173:1 174:1.5 175:0.5 177:1 178:1 #
0.271640414049793 1:0.193 2:1 3:0.292 4:0.028999999 5:0.69999999 11:1 43:0.041000001 44:1 52:1 57:0.233 58:0.035 63:1 87:0.15800001 88:0.13 89:1 90:0.90200001 91:0.83700001 92:0.17900001 93:0.308 94:0.1 95:0.097999997 96:0.122 97:0.12899999 98:0.152 99:0.212 100:0.171 101:0.156 102:0.104 103:0.106 104:0.107 105:0.021 108:0.068000004 109:1 111:0.60000002 114:1 124:1 133:0.71200001 163:0.382 166:0.40000001 167:0.75 168:0.294 169:0.42899999 170:0.090999998 171:0.2 174:0.421 175:0.2 176:0.118 177:0.333 178:0.191 184:0.154 185:1 187:0.333 188:0.5 189:1 201:1 209:0.32600001 210:0.0040000002 239:0.191 242:0.89999998 243:0.65200001 244:0.212 245:0.34599999 246:0.059 247:0.050000001 248:0.17399999 249:0.093999997 250:0.167 251:0.442 252:0.106 253:0.19400001 254:0.039000001 255:0.125 256:0.094999999 257:0.077 260:0.030999999 261:1 262:0.667 263:0.5 264:1 266:1 278:1 285:0.24600001 286:0.0099999998 315:0.40400001 316:0.077 317:1 318:0.60000002 319:0.73299998 320:0.5 321:0.53899997 322:0.40000001 323:0.1 324:0.133 325:0.167 326:0.273 327:0.18799999 328:0.156 329:0.28600001 330:0.177 331:0.13600001 333:0.105 336:0.082999997 337:1 338:0.40000001 339:0.333 340:1 #
0.21691452648099169 1:0.324 2:1 3:1 4:0.0060000001 5:0.667 9:1 43:0.0089999996 44:1 52:1 57:0.61199999 87:0.25 91:1 92:0.25 93:0.333 99:0.75 102:0.25 105:1 108:0.333 110:1 113:1 129:1 133:0.616 163:0.20900001 164:0.056000002 165:0.75 166:0.75999999 167:0.69 168:0.30899999 169:0.264 170:0.178 171:0.2 172:0.207 173:0.068999998 174:0.296 175:0.241 176:0.167 177:0.15700001 178:0.212 179:0.14300001 181:0.17200001 184:0.18000001 185:1 187:1 188:0.5 189:0.5 190:1 200:1 209:0.19 239:0.389 243:0.667 244:0.2 245:0.5 246:0.60000002 247:1 251:0.167 252:0.5 253:0.5 254:0.71399999 260:1 261:1 262:1 264:1 266:1 277:1 285:0.85399997 286:0.0040000002 315:0.30700001 318:0.833 319:0.5 326:0.071000002 327:0.214 328:0.082999997 329:0.125 337:1 341:1 342:1 354:1 361:0.76800001 362:0.0080000004 391:0.13600001 394:1 395:1 397:0.2 398:0.167 401:0.25 403:0.125 406:0.125 #
0.13829514320826156 1:0.259 2:1 3:0.36500001 4:0.035 5:0.69999999 11:1 43:0.050000001 44:1 52:1 57:0.382 58:0.032000002 63:1 87:0.191 88:0.5 90:0.667 91:1 100:0.333 101:0.667 110:1 124:1 133:0.124 163:0.28099999 166:1 167:0.667 176:0.5 178:0.333 187:1 190:1 201:1 209:0.68400002 210:0.003 239:0.191 243:1 244:0.5 245:0.5 246:0.5 250:0.333 251:0.333 253:0.5 254:0.667 261:1 266:1 278:1 285:0.119 286:0.029999999 315:0.32300001 316:0.25 318:1 319:0.81800002 320:0.214 321:0.111 324:0.090999998 325:0.294 326:0.18799999 327:0.125 328:0.118 329:0.090999998 331:0.090999998 333:0.14300001 337:1 340:0.5 #
0.2303388840754092 1:0.18099999 2:1 3:0.71600002 4:0.021 5:0.69999999 11:1 43:0.029999999 44:1 49:1 57:0.088 58:0.024 87:0.133 90:1 91:1 92:1 98:0.2 100:0.28600001 101:0.5 102:0.2 106:1 109:1 126:1 133:0.42300001 134:0.0099999998 163:0.138 166:1 167:0.85699999 168:0.1 174:0.071000002 185:1 187:1 188:1 190:1 203:1 209:0.45699999 210:0.032000002 215:1 239:0.161 242:0.875 243:1 244:0.31299999 245:0.5 246:0.222 247:0.125 249:0.041999999 250:0.208 251:0.375 252:0.048 253:0.050000001 254:0.167 257:0.167 260:0.071000002 261:1 262:1 263:1 266:1 276:1 285:0.447 315:0.161 318:0.85699999 319:0.875 320:0.28600001 321:0.5 323:0.14300001 324:0.125 325:0.235 326:0.333 327:0.375 328:0.082999997 330:0.118 331:0.082999997 336:0.082999997 #
-0.36182488816523267 1:0.132 2:1 3:0.55800003 4:0.0099999998 5:0.667 9:1 43:0.015 44:1 52:1 57:0.55199999 87:0.124 90:0.92299998 91:0.92299998 92:0.028999999 93:0.296 94:0.039000001 97:0.046999998 98:0.046999998 99:0.30199999 100:0.121 101:0.1 102:0.046999998 104:0.125 109:1 113:1 124:1 133:0.18799999 163:0.27000001 166:0.75 167:0.69999999 168:0.14300001 169:0.211 170:0.2 172:0.1 173:0.154 174:0.34599999 175:0.154 176:0.333 177:0.55599999 178:0.23100001 179:0.077 180:0.167 183:0.5 184:0.1 185:1 187:1 190:1 201:1 209:0.56 210:0.0049999999 239:0.23800001 240:0.103 241:0.5 242:0.82800001 243:0.78799999 244:0.38999999 245:0.405 246:0.37900001 247:0.103 248:0.182 249:0.12800001 250:0.31200001 251:0.28600001 252:0.164 253:0.167 254:0.145 255:0.12800001 256:0.056000002 257:0.152 259:0.167 260:0.07 261:1 262:0.40000001 263:0.80000001 264:0.5 265:1 266:0.625 278:1 285:1 286:0.0060000001 315:0.27500001 316:0.048 317:0.5 318:0.773 319:0.73100001 320:0.34999999 321:0.58600003 322:0.26100001 323:0.090999998 324:0.115 325:0.15000001 326:0.333 327:0.491 328:0.17 329:0.303 330:0.22 331:0.086000003 332:0.071000002 333:0.17900001 335:0.333 336:0.093999997 337:0.80000001 338:1 339:0.75 340:0.80000001 341:1 342:1 #
-0.30235708578210946 1:0.221 2:1 3:0.67500001 4:0.0060000001 5:0.667 9:1 43:0.0099999998 44:1 52:1 57:0.088 87:0.15000001 90:1 91:1 100:0.5 101:1 102:0.25 106:1 109:1 124:1 133:0.366 163:0.14300001 166:1 167:0.833 168:0.125 174:0.082999997 185:1 187:1 188:1 190:1 201:1 209:0.47799999 210:0.0049999999 239:0.169 242:0.85699999 243:1 244:0.308 245:0.60000002 246:0.222 247:0.14300001 249:0.044 250:0.191 251:0.42899999 252:0.052999999 253:0.056000002 254:0.182 257:0.182 260:0.082999997 261:1 262:1 263:1 266:1 278:1 285:1 286:0.0040000002 315:0.271 316:0.28600001 318:1 319:0.333 320:0.182 321:0.333 322:0.5 326:0.167 327:0.25 328:0.583 329:0.273 330:0.333 333:0.2 337:1 339:0.5 341:1 #
-0.088938753694303055 1:0.294 2:1 3:0.83499998 4:0.0099999998 5:0.667 9:1 43:0.014 44:1 50:1 57:0.45899999 58:0.017000001 87:0.292 90:0.625 91:0.5 93:0.090999998 97:0.046 99:0.044 101:0.118 102:0.13 109:1 111:1 128:1 133:0.75700003 163:0.22 166:0.81 167:0.51999998 168:0.163 169:0.205 170:0.086999997 171:0.048 172:0.039999999 173:0.016000001 174:0.121 175:0.228 176:0.052000001 177:0.186 178:0.068000004 179:0.028000001 184:0.028999999 185:1 186:1 187:1 188:0.25 190:1 200:1 209:1 239:0.23899999 240:0.052999999 241:0.5 242:0.875 243:0.69999999 244:0.35699999 245:0.308 246:0.294 247:0.125 248:0.133 249:0.19400001 250:0.382 251:0.292 252:0.19400001 253:0.271 254:0.25400001 255:0.111 257:0.125 260:0.107 261:1 262:0.60000002 263:1 265:1 266:1 277:1 285:0.87300003 286:0.0049999999 315:0.175 316:0.125 318:0.84600002 319:0.833 320:0.138 321:0.111 322:0.082999997 325:0.119 326:0.2 327:0.097999997 328:0.125 329:0.26699999 330:0.072999999 331:0.059 332:0.090999998 337:0.75 338:1 341:1 342:1 #
0.10536842789060004 1:0.30599999 2:1 3:0.81199998 4:0.0049999999 5:0.14300001 7:1 43:0.035999998 44:1 52:1 57:0.35100001 58:0.023 61:1 87:1 124:1 133:1 134:0.0080000004 137:1 163:1 170:1 178:2 202:1 209:0.40400001 210:0.02 #
0.042208953475525134 1:0.37900001 2:1 3:0.639 4:0.028999999 5:0.35299999 7:1 43:0.083999999 44:1 52:1 57:0.61900002 58:0.034000002 63:1 87:0.125 91:1 94:0.5 95:1 102:1 108:1 129:1 133:0.156 134:0.123 137:1 163:0.57099998 170:1 173:1 178:1 202:1 209:0.29800001 210:0.021 242:1 #
0.084381635813217837 1:0.40099999 2:1 3:0.995 4:0.0049999999 5:0.14300001 7:1 43:0.035 44:1 53:1 57:0.41 58:0.024 61:1 87:1 124:1 133:0.22 134:0.043000001 137:1 163:1 171:1 178:1 184:1 202:1 209:0.61199999 210:0.016000001 239:1 264:1 #
0.019115635954954475 1:0.37799999 2:1 3:1 4:0.0040000002 5:0.2 7:1 43:0.021 44:1 50:1 57:0.40799999 58:0.02 87:0.71399999 93:1 99:1 124:1 133:0.20200001 134:0.039999999 137:1 163:1 169:1 170:1 175:1 178:0.5 #
0.16786225338457761 1:0.498 2:1 3:0.787 4:0.011 5:0.42899999 7:1 43:0.027000001 44:1 50:1 57:0.40900001 58:0.015 87:0.38999999 90:0.84600002 91:0.5 92:0.182 93:0.43799999 94:0.5 97:0.31999999 98:0.25 99:0.079999998 100:0.2 102:0.47999999 104:0.2 113:1 114:1 124:1 133:1 134:0.012 139:1 163:0.935 168:0.667 169:0.57099998 170:0.5 173:0.80000001 174:0.889 175:0.55599999 176:0.85699999 177:1 178:0.778 179:0.25 #
-0.034175497623236323 1:0.25600001 2:1 3:0.95899999 4:0.015 5:0.42899999 7:1 43:0.034000002 44:1 48:1 57:0.45500001 58:0.039999999 63:1 87:0.28600001 94:1 99:1 126:1 133:0.40799999 134:0.023 163:0.71399999 168:1 170:1 174:1 176:0.5 177:2 178:2 #
-0.16247375114669679 1:0.426 2:1 3:1 4:0.082000002 5:0.51200002 6:1 19:1 43:0.16500001 44:1 49:1 57:0.56400001 58:0.046 61:1 87:0.30000001 91:1 92:0.25 94:0.42899999 98:0.1 100:0.182 102:0.36399999 126:1 133:0.67400002 134:0.142 139:1 163:0.154 170:1 176:0.5 178:1.5 #
-0.096198938919173083 1:0.37900001 2:1 3:-0.003 4:16 5:0.727 8:1 43:-22 44:1 51:1 57:1 58:0.0049999999 61:1 87:0.333 90:0.75 91:0.40000001 99:0.14300001 125:1 133:0.34099999 134:0.122 139:1 167:1 #
-0.067710885854148514 1:0.428 2:1 3:0.70200002 4:0.204 5:0.66100001 6:1 19:1 43:0.31999999 44:1 49:1 57:0.244 58:0.093999997 61:1 126:1 134:1 139:1 163:0.5 177:1 #
-0.48902942763351859 1:0.419 2:1 3:0.64399999 4:0.025 5:0.31299999 8:1 43:0.081 44:1 48:1 57:0.62699997 58:0.035 63:1 87:0.421 91:0.75 92:0.5 93:0.667 98:0.25 99:1 100:0.25 101:3 125:1 133:0.27500001 134:0.075999998 137:1 163:0.40000001 #
0.12392952580059884 1:0.31200001 2:1 3:0.912 4:0.021 5:0.625 11:1 43:0.034000002 44:1 52:1 57:0.472 58:0.039000001 63:1 87:0.55800003 92:0.5 93:0.5 94:0.333 96:0.333 97:0.42899999 98:0.5 99:0.57099998 100:0.375 102:0.28600001 103:0.333 105:0.333 108:0.25 110:1 124:1 133:0.75300002 163:0.21699999 166:0.80000001 167:0.51999998 168:0.17 169:0.211 170:0.046 171:0.050000001 172:0.039999999 173:0.017000001 174:0.125 175:0.241 176:0.054000001 177:0.191 178:0.035 179:0.028999999 184:0.028999999 185:1 186:1 187:1 188:0.25 190:1 201:1 209:1 210:0.0040000002 239:0.237 240:0.052999999 241:0.5 242:0.86699998 243:0.69 244:0.34599999 245:0.31600001 246:0.294 247:0.133 248:0.138 249:0.197 250:0.373 251:0.29699999 252:0.197 253:0.271 254:0.24600001 255:0.114 257:0.125 260:0.077 261:1 262:0.60000002 263:1 265:1 266:1 278:1 285:0.84299999 286:0.0089999996 315:0.175 316:0.14300001 318:0.84600002 319:0.81800002 320:0.14300001 321:0.111 322:0.086999997 325:0.125 326:0.205 327:0.1 328:0.12800001 329:0.26699999 330:0.075000003 331:0.063000001 332:0.090999998 337:0.667 338:1 341:1 342:1 #
0.90000000000000002 1:0.198 2:1 3:0.94499999 4:0.0060000001 5:0.667 10:1 43:0.0089999996 44:1 53:1 57:1 87:0.223 89:0.333 90:0.89999998 91:0.67900002 92:0.35299999 93:0.56800002 94:0.125 95:0.1 96:0.25 97:0.164 98:0.28400001 99:0.493 100:0.219 101:0.1 102:0.134 103:0.184 105:0.13600001 108:0.097000003 109:1 110:0.875 111:1 114:1 124:1 133:0.72299999 163:0.255 164:0.023 166:0.80500001 167:0.71600002 168:0.149 169:0.26699999 170:0.094999999 171:0.072999999 172:0.063000001 173:0.075999998 174:0.12800001 175:0.23999999 176:0.12899999 177:0.104 178:0.081 179:0.056000002 180:0.014 181:0.032000002 184:0.046999998 185:0.94400001 186:0.5 187:0.25 188:1 189:0.5 190:0.93300003 201:1 209:0.71899998 210:0.0040000002 239:0.35299999 242:1 243:0.333 244:0.60000002 250:0.667 252:0.167 261:1 262:1 265:1 266:1 278:1 285:0.56400001 286:0.0099999998 315:0.255 316:0.063000001 317:1 318:1 319:0.81300002 320:0.40000001 321:0.34799999 322:0.28 324:0.063000001 325:0.182 326:0.38100001 327:0.23800001 328:0.27500001 329:0.28999999 330:0.205 331:0.041999999 333:0.167 337:1 339:0.333 340:0.60000002 341:1 342:1 #
0.13156653576558194 1:0.27200001 2:1 3:0.829 4:0.0099999998 5:0.667 9:1 43:0.015 44:1 53:1 57:0.847 87:0.184 90:0.778 91:1 92:0.182 93:0.28600001 94:0.28600001 95:0.222 97:0.094999999 98:0.13600001 99:0.25 100:0.125 102:0.208 105:0.1 108:0.2 109:1 110:1 111:1 114:1 124:1 133:0.574 163:0.29699999 164:0.14300001 166:0.60000002 167:0.667 168:0.229 169:0.28600001 170:0.191 172:0.056000002 173:0.15700001 174:0.236 175:0.245 176:0.122 177:0.028999999 178:0.189 179:0.067000002 182:0.082999997 184:0.030999999 185:1 190:0.667 201:1 209:1 210:0.0040000002 239:0.197 242:0.80000001 243:0.5 244:0.375 245:0.28600001 247:0.2 248:0.5 249:0.182 250:0.25 251:0.30000001 252:0.273 254:0.1 255:0.333 257:0.333 260:0.167 261:1 263:1 266:1 278:1 285:0.792 286:0.0099999998 315:0.071000002 318:1 319:0.5 321:1 327:0.2 342:1 356:1 361:0.50999999 391:0.40000001 401:1 404:1 #
0.25240586427167888 1:0.43700001 2:1 3:0.713 4:0.0060000001 5:0.667 9:1 43:0.0089999996 44:1 53:1 57:0.094999999 87:0.154 90:1 91:1 92:1 98:0.25 100:0.333 101:1 102:0.2 106:1 109:1 124:1 133:0.42899999 163:0.145 166:1 167:0.85699999 168:0.111 174:0.077 185:1 187:1 188:1 190:1 201:1 209:0.47400001 210:0.0049999999 239:0.16500001 242:0.875 243:1 244:0.333 245:0.546 246:0.222 247:0.125 249:0.041999999 250:0.21699999 251:0.391 252:0.048 253:0.052999999 254:0.17399999 257:0.167 260:0.077 261:1 262:1 263:1 266:1 278:1 285:1 286:0.0040000002 315:0.25 316:0.28600001 318:1 319:0.5 320:0.167 321:0.28600001 322:0.40000001 326:0.154 327:0.23100001 328:0.53899997 329:0.25 330:0.308 333:0.2 337:1 339:0.5 341:1 356:1 361:0.449 391:0.169 394:0.833 395:0.875 396:0.28600001 397:0.5 399:0.167 400:0.125 401:0.25 402:0.333 403:0.375 404:0.090999998 406:0.125 407:0.082999997 412:0.090999998 #
-0.41863180418004536 1:0.23999999 2:1 3:0.60000002 4:0.032000002 5:0.69999999 10:1 43:0.045000002 44:1 53:1 57:0.57800001 87:0.242 88:0.059 90:0.85000002 91:0.60000002 92:0.192 93:0.43599999 94:0.071000002 95:0.1 96:0.12 97:0.18799999 98:0.242 99:0.32300001 100:0.22400001 101:0.125 102:0.106 103:0.085000001 104:0.23100001 105:0.115 108:0.090999998 109:0.80000001 110:1 111:1 113:1 114:0.71399999 124:1 133:0.048999999 163:0.213 165:1 166:0.833 167:0.667 168:0.28600001 169:0.333 174:0.14300001 175:0.077 176:0.067000002 182:0.5 185:1 186:1 187:1 190:1 201:1 209:0.801 210:0.003 239:0.45500001 242:0.5 243:0.667 244:0.417 245:0.5 246:0.167 247:0.25 249:0.14300001 250:0.308 251:0.23100001 252:0.077 254:0.308 260:0.14300001 261:1 262:1 278:1 285:0.699 286:0.0080000004 315:0.146 316:0.2 318:0.75 319:1 320:0.14300001 323:0.25 325:0.071000002 326:0.071000002 327:0.214 329:0.090999998 330:0.154 333:0.333 336:0.182 337:1 340:1 342:1 355:1 361:1 362:0.018999999 367:1 391:0.20100001 394:0.85699999 395:0.86699998 396:0.212 397:0.185 398:0.235 399:0.071000002 401:0.027000001 402:0.205 403:0.175 404:0.189 405:0.26100001 406:0.105 409:0.077 412:0.050000001 413:1 414:1 415:1 416:1 418:1 #
-0.90000000000000002 1:0.28600001 2:1 3:1 4:0.0089999996 5:0.667 10:1 43:0.014 44:1 53:1 57:0.92400002 87:0.163 90:1 91:0.833 92:0.292 93:0.21699999 94:0.294 96:0.082999997 97:0.097000003 98:0.17200001 99:0.226 100:0.182 101:0.046 102:0.156 103:0.105 109:1 110:0.667 114:1 124:1 133:0.88800001 163:0.104 166:1 167:1 169:0.23100001 170:0.28600001 173:0.048 175:0.211 176:0.26300001 177:0.28600001 178:0.14300001 185:1 186:1 187:1 190:1 201:1 209:0.91500002 210:0.0049999999 239:0.22499999 242:0.84600002 243:0.87099999 244:0.333 245:0.25999999 246:0.139 247:0.077 249:0.039000001 250:0.273 251:0.22400001 252:0.237 253:0.255 254:0.090999998 255:0.044 257:0.039000001 260:0.072999999 261:1 262:1 265:1 266:0.75 278:1 285:0.87 286:0.0099999998 315:0.15099999 316:0.152 318:0.80800003 319:0.84500003 320:0.161 321:0.198 322:0.064000003 323:0.13699999 324:0.085000001 325:0.115 326:0.171 327:0.153 328:0.145 329:0.208 330:0.134 331:0.067000002 332:0.039999999 333:0.071000002 335:0.111 336:0.109 337:1 338:1 339:0.5 342:0.778 #
-0.31172739413198086 1:0.23999999 2:1 3:0.72000003 4:0.0089999996 5:0.667 9:1 43:0.013 44:1 53:1 57:0.625 87:0.16 88:0.090999998 89:1 90:0.92500001 91:0.84399998 92:0.207 93:0.301 94:0.13600001 95:0.075999998 96:0.125 97:0.116 98:0.171 99:0.206 100:0.152 101:0.146 102:0.114 103:0.106 104:0.086000003 105:0.016000001 108:0.052999999 109:1 110:0.167 111:0.71399999 113:1 114:1 124:1 133:0.289 163:0.34599999 166:1 169:0.333 175:0.25 178:0.2 185:1 186:1 188:1 190:1 201:1 209:0.722 210:0.0040000002 239:0.36500001 240:0.333 242:0.833 243:0.25 244:0.30000001 245:0.1 246:0.333 249:0.177 250:0.56300002 251:0.133 252:0.056000002 253:0.14300001 254:0.25 256:0.167 261:1 278:1 285:0.70300001 286:0.0089999996 315:0.296 316:0.333 318:0.667 319:0.60000002 320:0.125 321:0.333 324:0.2 325:0.222 326:0.125 327:0.167 328:0.71399999 329:0.28600001 330:0.14300001 331:0.14300001 356:1 361:1 391:0.241 393:1 394:0.667 397:0.333 398:0.5 399:0.333 400:1 401:0.40000001 403:0.2 404:0.2 406:0.60000002 407:1 408:0.333 412:0.333 415:1 #
0.095800562112267312 1:0.428 2:1 3:1 4:0.0099999998 5:0.667 6:1 43:0.015 44:1 49:1 57:0.12800001 58:0.037999999 87:0.53899997 90:1 92:1 96:1 97:0.333 98:0.5 99:0.5 101:2 103:1 105:1 126:1 133:0.96799999 134:0.0099999998 163:0.154 167:1 170:1 173:0.5 177:0.5 178:1 183:1 190:1 #
0.13148935273358578 1:0.48199999 2:1 3:1 4:0.012 5:0.31299999 8:1 43:0.039000001 44:1 49:1 57:0.56699997 58:0.028999999 61:1 87:0.23800001 90:0.667 91:0.5 93:0.333 95:0.333 99:0.25 102:0.5 108:0.333 127:1 133:0.48500001 134:0.034000002 139:1 163:0.333 168:1 171:1 174:1 178:3 184:1 #
0.099536416603375422 1:0.31099999 2:1 3:0.86199999 8:1 43:0.028999999 44:1 49:1 57:0.66000003 58:0.013 61:1 87:0.63599998 93:1 98:0.5 99:0.5 101:2 127:1 133:0.37900001 134:0.022 137:1 163:0.546 168:0.5 169:1 170:1 173:1 174:1 175:0.5 178:0.5 #
0.060021936493146209 1:0.37400001 2:1 3:0.46700001 4:0.0099999998 5:0.667 6:1 43:0.015 44:1 49:1 57:0.49900001 58:0.0049999999 87:0.86699998 97:0.333 100:1 101:1 106:1 126:1 133:0.26800001 134:0.017000001 163:0.23100001 169:0.5 170:1 175:0.5 178:0.5 #
-0.059912713569924669 1:0.33199999 2:1 3:0.38699999 4:0.0099999998 5:0.667 6:1 43:0.016000001 44:1 49:1 57:0.421 58:0.0049999999 126:1 133:1 134:0.0040000002 163:0.75 171:1 174:0.5 178:2 184:1 #
-0.06556789646711346 1:0.30700001 2:1 3:0.77899998 4:0.0099999998 5:0.667 6:1 43:0.015 44:1 49:1 57:0.98900002 58:0.0040000002 91:1 126:1 133:0.602 134:0.013 163:0.42899999 168:1 170:1 174:1 178:2 #
-0.28190586428037745 1:0.36899999 2:1 3:0.58099997 4:0.0049999999 5:0.333 7:1 43:0.015 44:1 52:1 57:0.113 60:1 126:1 133:0.17399999 134:0.032000002 163:0.71399999 170:1 178:1 #
0.25493649709921878 1:0.29100001 2:1 3:0.63300002 4:0.029999999 5:0.667 10:1 43:0.044 44:1 50:1 57:0.419 58:0.015 87:0.23199999 90:1 91:1 92:0.375 93:0.2 94:0.333 97:0.333 98:0.30000001 99:0.1 100:0.1 102:0.111 114:1 127:1 133:0.65399998 134:0.028000001 139:1 163:0.20900001 166:1 167:0.708 168:0.146 169:0.479 170:0.44800001 172:0.167 173:0.152 174:0.093999997 175:0.373 176:0.161 177:0.2 178:0.292 179:0.111 181:0.111 184:0.029999999 185:1 186:1 187:1 188:1 190:1 205:1 209:0.125 239:0.222 242:1 243:1 245:0.5 251:1 253:1 261:1 276:1 285:1 315:0.214 317:0.5 318:0.80000001 319:0.80000001 320:0.40000001 323:0.2 326:0.40000001 328:0.40000001 329:0.57099998 330:0.2 332:0.40000001 336:0.14300001 340:1 353:1 361:0.50300002 362:0.0060000001 391:0.25600001 394:1 395:1 401:0.375 404:0.25 406:0.14300001 407:0.25 413:1 414:1 415:1 #
0.90000000000000002 1:0.161 2:1 3:0.58999997 4:0.0089999996 5:0.667 9:1 43:0.014 44:1 53:1 57:0.63999999 87:0.211 88:0.035999998 89:0.5 90:0.89700001 91:0.70200002 92:0.175 93:0.39700001 94:0.333 95:0.077 96:0.043000001 97:0.035 98:0.12 99:0.30500001 100:0.206 101:0.169 102:0.23100001 103:0.030999999 105:0.079999998 107:0.111 108:0.068999998 109:1 110:0.25 111:0.333 112:0.5 113:0.667 114:0.71399999 124:1 133:0.55000001 163:0.266 166:1 167:0.60000002 168:0.19400001 169:0.417 170:0.278 172:0.133 173:0.139 174:0.19400001 175:0.34299999 176:0.212 177:0.227 178:0.243 179:0.090999998 181:0.090999998 184:0.056000002 185:1 187:1 188:1 190:1 201:1 209:0.58899999 210:0.0049999999 239:0.32499999 242:0.727 243:0.64700001 244:0.017999999 245:0.116 246:0.082999997 249:0.061000001 250:0.057999998 251:0.169 252:0.097000003 253:0.054000001 254:0.093999997 259:0.2 261:1 262:1 264:1 266:1 278:1 285:1 286:0.0060000001 315:0.244 316:0.23999999 318:0.92900002 319:0.745 320:0.25799999 321:0.414 322:0.405 323:0.071000002 324:0.106 325:0.090000004 326:0.233 327:0.241 328:0.245 329:0.241 330:0.324 331:0.081 336:0.046 337:0.833 338:0.25 339:1 340:0.667 341:0.667 342:0.42899999 356:1 361:0.61500001 391:0.43599999 394:0.546 395:0.57099998 396:0.333 397:0.46200001 398:0.111 399:0.090999998 401:0.086999997 402:0.14300001 403:0.565 404:0.182 405:0.25 406:0.26100001 409:0.222 412:0.071000002 413:1 414:1 415:1 416:1 418:1 #
0.38327764527122643 1:0.207 2:1 3:0.45300001 4:0.0099999998 5:0.667 9:1 43:0.015 44:1 53:1 57:1 87:0.27599999 88:0.067000002 90:0.87900001 91:0.85699999 92:0.40000001 93:0.43799999 94:0.26699999 95:0.061000001 96:0.035999998 97:0.12800001 98:0.36899999 99:0.296 100:0.186 101:0.27599999 102:0.211 103:0.039999999 104:0.079999998 105:0.057999998 108:0.033 109:0.778 110:0.625 111:1 112:0.333 113:1 114:1 124:1 133:0.45300001 163:0.15899999 165:1 166:0.94099998 167:0.92000002 168:0.14 169:0.30000001 170:0.19 171:0.028999999 172:0.059999999 173:0.071000002 174:0.114 175:0.245 176:0.19400001 177:0.233 178:0.126 179:0.044 184:0.018999999 185:1 186:0.5 187:1 188:0.5 190:1 201:1 209:0.29300001 210:0.0080000004 239:0.219 240:0.048 242:0.935 243:0.63999999 244:0.23100001 245:0.242 246:0.162 247:0.022 248:0.16 249:0.146 250:0.19 251:0.23800001 252:0.19599999 253:0.278 254:0.118 255:0.125 256:0.044 257:0.063000001 260:0.048 261:0.875 262:0.5 263:0.667 264:1 265:1 266:0.5 278:1 285:0.47099999 286:0.0099999998 315:0.175 318:1 319:0.667 320:0.333 321:0.25 324:0.333 325:0.167 326:0.125 327:0.125 331:0.333 338:1 356:1 361:0.54400003 391:0.442 392:0.333 394:0.80000001 395:0.5 396:0.57099998 397:0.5 401:0.125 402:0.85699999 403:0.125 404:0.14300001 405:0.40000001 415:0.5 #
0.42351415198057141 1:0.34299999 2:1 3:1 4:0.0070000002 5:0.667 9:1 43:0.0099999998 44:1 53:1 57:0.89600003 87:0.198 88:0.167 90:0.5 92:0.273 93:0.30000001 94:0.333 95:0.5 98:0.46200001 99:0.43799999 100:0.333 101:0.1 102:0.375 104:0.5 105:0.333 108:0.375 109:1 114:1 124:1 133:0.70599997 163:0.38100001 166:1 167:1 174:0.375 176:0.14300001 178:0.125 185:0.667 186:1 187:1 188:1 201:1 209:0.648 210:0.0049999999 239:0.21799999 240:0.044 242:0.88200003 243:0.80599999 244:0.28799999 245:0.27500001 246:0.296 247:0.088 248:0.028000001 249:0.085000001 250:0.28299999 251:0.17 252:0.11 253:0.303 254:0.25 255:0.052000001 256:0.077 260:0.1 261:1 262:1 263:0.833 264:0.25 265:0.5 266:1 278:1 285:0.64499998 286:0.0099999998 315:0.20900001 318:1 319:0.81800002 320:0.17900001 321:0.25 322:0.26300001 325:0.061000001 326:0.152 327:0.061000001 328:0.161 329:0.25 330:0.212 331:0.059 337:1 338:1 339:0.5 340:0.5 342:1 356:1 361:0.91000003 391:0.25400001 394:1 395:0.667 396:0.25 397:0.25 402:0.25 403:0.082999997 404:0.333 405:0.71399999 406:0.082999997 416:1 418:0.667 #
-0.84006660042364256 1:0.23800001 2:1 3:0.49399999 4:0.0080000004 5:0.667 10:1 43:0.012 44:1 53:1 57:1 87:0.236 90:0.75 91:0.44400001 92:0.333 93:0.36399999 94:0.5 97:0.090999998 98:0.333 99:0.36399999 100:0.333 101:0.15800001 102:0.13600001 104:0.111 114:1 124:1 133:0.271 163:0.234 165:1 166:0.71100003 167:0.68300003 168:0.17900001 169:0.052999999 170:0.107 171:0.052999999 173:0.074000001 174:0.214 175:0.057999998 176:0.18000001 177:0.213 178:0.098999999 181:0.022 184:0.030999999 185:1 186:1 187:1 188:1 189:0.333 190:0.5 201:1 209:0.60900003 210:0.003 239:0.22400001 240:0.108 241:0.75 242:0.81599998 243:0.764 244:0.32800001 245:0.35499999 246:0.22400001 247:0.163 248:0.146 249:0.097000003 250:0.28099999 251:0.32499999 252:0.20100001 253:0.15899999 254:0.222 255:0.102 256:0.026000001 257:0.131 260:0.122 261:1 262:1 263:0.889 264:0.5 265:0.57099998 266:0.80000001 278:1 285:0.55699998 286:0.0070000002 315:0.178 316:0.125 317:1 318:0.89499998 319:0.86299998 320:0.163 321:0.38499999 322:0.308 323:0.052999999 324:0.039000001 325:0.048 326:0.17299999 327:0.31400001 328:0.18000001 329:0.17299999 330:0.155 331:0.028999999 332:0.041999999 333:0.075000003 336:0.048 337:1 339:0.40000001 341:1 342:1 #
-0.16388680457757981 1:0.168 2:1 3:0.62 4:0.037 5:0.412 6:1 43:0.090000004 44:1 51:1 57:1 58:0.022 63:1 87:0.61500001 89:0.5 90:0.5 91:0.28600001 92:0.5 93:0.5 94:0.45500001 95:0.30000001 96:0.14300001 97:0.38499999 98:0.57700002 99:0.55599999 100:0.30399999 101:0.368 102:0.44400001 103:0.1 104:0.333 105:0.222 108:0.26699999 109:1 110:0.5 113:1 114:1 129:1 133:0.787 134:0.028000001 137:1 163:0.25999999 164:0.056000002 166:0.824 167:0.76200002 168:0.31299999 169:0.61500001 170:0.2 171:0.059 172:0.094999999 173:0.125 174:0.333 175:0.59600002 176:0.116 177:0.38499999 178:0.125 179:0.071000002 180:0.1 181:0.191 183:0.5 184:0.039999999 185:0.75 186:1 187:0.667 188:0.80000001 189:1 190:1 201:1 209:0.639 210:0.0049999999 239:0.169 240:0.118 241:1 242:0.90899998 243:0.77100003 244:0.093999997 245:0.34099999 246:0.257 247:0.046 248:0.171 249:0.205 250:0.063000001 251:0.259 252:0.103 253:0.178 254:0.171 255:0.184 256:0.125 257:0.081 260:0.064999998 261:1 262:1 263:1 264:0.667 266:1 278:1 285:0.57800001 286:0.011 315:0.21699999 317:1 318:0.778 319:0.68199998 320:0.206 321:0.182 322:0.47099999 323:0.222 324:0.13600001 325:0.13 326:0.15899999 327:0.089000002 328:0.213 329:0.28 330:0.36199999 331:0.090999998 336:0.148 337:1 339:0.25 342:1 #
-0.32336389868257431 1:0.2 2:1 3:0.83600003 4:0.0080000004 5:0.667 10:1 43:0.012 44:1 53:1 57:0.133 87:0.131 88:0.125 90:0.889 91:0.778 92:0.153 93:0.213 94:0.417 95:0.111 96:0.222 97:0.13 98:0.12800001 99:0.113 100:0.104 101:0.068000004 102:0.205 103:0.18000001 105:0.030999999 108:0.057999998 109:1 110:1 111:0.25 112:0.667 114:1 124:1 133:1 163:0.235 165:1 166:0.5 167:0.85699999 168:0.333 169:0.167 172:0.14300001 173:0.082999997 174:0.45500001 175:0.182 176:0.077 177:0.222 178:0.082999997 179:0.111 180:0.5 181:0.2 184:0.2 185:1 187:1 190:1 201:1 209:0.83899999 210:0.0040000002 239:0.22 241:1 242:1 243:0.75 244:0.222 245:0.2 250:0.26100001 251:0.273 252:0.182 254:0.046 260:0.082999997 261:1 262:1 263:1 266:1 278:1 285:0.68900001 286:0.0099999998 315:0.214 316:0.14300001 318:1 319:1 320:0.60000002 326:0.30000001 329:0.25 330:0.111 337:1 338:0.5 342:1 #
0.027263856040346184 1:0.35600001 2:1 3:1 4:0.0070000002 5:0.667 6:1 43:0.0099999998 44:1 49:1 57:0.85799998 58:0.0040000002 87:0.17399999 90:0.80000001 91:0.75 92:0.177 93:0.090999998 94:0.154 95:0.2 97:0.094999999 98:0.222 99:0.1 100:0.30000001 101:0.111 102:0.094999999 108:0.125 109:0.5 126:1 133:0.40099999 134:0.016000001 163:0.2 170:1 178:2 #
0.085266581374444511 1:0.39300001 2:1 3:0.85399997 4:0.0099999998 5:0.667 6:1 43:0.015 44:1 49:1 57:0.368 58:0.012 87:0.25 100:0.5 126:1 133:0.98100001 134:0.0089999996 163:0.5 170:1 176:3 178:1 #
0.10049992198188845 1:0.34 2:1 3:1 4:0.0040000002 5:0.667 6:1 43:0.0060000001 44:1 49:1 57:0.61900002 58:0.003 87:0.214 90:0.86699998 91:0.71399999 92:0.189 93:0.324 94:0.17900001 96:0.094999999 97:0.1 98:0.245 99:0.40799999 100:0.222 101:0.1 102:0.208 103:0.067000002 105:0.2 108:0.052999999 109:1 114:1 126:1 133:0.36399999 134:0.0099999998 163:0.333 171:1 176:1 178:2 184:1 #
0.011362794542999337 1:0.435 2:1 3:1 4:0.0089999996 5:0.667 6:1 43:0.013 44:1 49:1 57:0.68800002 58:0.0060000001 87:0.177 90:1 91:1 93:0.333 97:0.25 109:1 111:1 126:1 133:0.85500002 134:0.0099999998 163:0.25 167:1 168:0.5 170:1 171:1 174:0.5 178:2 184:1 #
-0.18113316460921022 1:0.338 2:1 3:0.65700001 4:0.027000001 5:0.59100002 7:1 43:0.045000002 44:1 50:1 57:0.40400001 58:0.017000001 87:0.42899999 100:0.5 127:1 133:0.79299998 134:0.025 139:1 163:0.28600001 170:1 178:2 #
-0.044687893968766851 1:0.289 2:1 3:0.47299999 4:0.012 5:0.60000002 7:1 43:0.02 44:1 50:1 57:0.189 58:0.0099999998 87:0.25 90:1 98:0.5 127:1 133:0.168 134:0.037999999 139:1 163:0.5 170:1 178:2 189:1 #
-0.061411074598961987 1:0.33500001 2:1 3:0.565 4:0.0049999999 5:0.2 7:1 43:0.025 44:1 50:1 57:0.75400001 58:0.0080000004 87:0.28600001 91:1 99:3 128:1 133:1 134:0.0060000001 137:1 163:0.28600001 178:2 184:1 #
0.27919385688962023 1:0.31900001 2:1 3:0.98100001 4:0.0099999998 5:0.667 10:1 43:0.015 44:1 53:1 57:0.33000001 87:0.51800001 89:0.5 90:0.667 91:0.417 92:0.28600001 93:0.2 94:0.667 97:0.048 98:0.15000001 99:0.094999999 100:0.421 101:0.1 102:0.191 107:0.333 108:0.125 109:1 110:1 111:0.667 112:0.667 113:1 124:1 133:0.59200001 163:0.25799999 164:0.111 166:1 167:0.85000002 168:0.47799999 169:0.38499999 170:0.125 172:0.1 173:0.167 174:0.229 175:0.30599999 176:0.259 177:0.1 178:0.082999997 179:0.185 185:1 186:0.75 189:0.5 190:1 201:1 209:1 210:0.0049999999 239:0.229 240:0.14300001 242:0.833 243:0.73900002 244:0.186 245:0.35299999 246:0.417 247:0.111 248:0.044 249:0.072999999 250:0.154 251:0.28 252:0.122 253:0.212 254:0.296 255:0.028999999 257:0.063000001 260:0.103 261:0.667 262:1 263:0.5 265:0.667 266:1 278:1 285:0.95700002 286:0.0099999998 315:0.211 317:1 318:0.833 319:0.86699998 320:0.23800001 321:0.44400001 322:0.333 323:0.082999997 324:0.067000002 325:0.182 326:0.156 327:0.32300001 328:0.206 329:0.21699999 330:0.219 331:0.14300001 333:0.154 335:0.2 336:0.050000001 337:1 338:1 339:1 #
0.90000000000000002 1:0.25099999 2:1 3:0.71100003 4:0.0070000002 5:0.667 10:1 43:0.0099999998 44:1 53:1 57:1 87:0.237 90:0.80000001 91:0.42899999 92:0.40000001 93:0.5 94:0.60000002 97:0.118 98:0.31299999 99:0.47099999 100:0.25 101:0.071000002 102:0.177 124:1 133:0.54799998 163:0.236 165:1 166:0.70300001 167:0.70200002 168:0.18700001 169:0.055 170:0.113 171:0.054000001 173:0.068999998 174:0.223 175:0.059999999 176:0.17 177:0.2 178:0.103 181:0.023 184:0.032000002 185:1 186:1 187:1 188:1 189:0.333 190:0.5 201:1 209:0.59200001 210:0.0040000002 239:0.226 240:0.111 241:0.75 242:0.81599998 243:0.759 244:0.32499999 245:0.34999999 246:0.205 247:0.163 248:0.148 249:0.1 250:0.28400001 251:0.32300001 252:0.208 253:0.167 254:0.21699999 255:0.105 256:0.028000001 257:0.133 260:0.125 261:1 262:1 263:0.889 264:0.5 265:0.57099998 266:0.75 278:1 285:0.479 286:0.0099999998 315:0.17900001 316:0.133 317:1 318:0.912 319:0.875 320:0.183 321:0.37900001 322:0.34299999 323:0.059 324:0.041999999 325:0.052999999 326:0.19400001 327:0.30899999 328:0.18000001 329:0.191 330:0.17200001 331:0.030999999 332:0.046 333:0.082999997 336:0.054000001 337:1 339:0.40000001 341:1 342:1 #
-0.34014853076504314 1:0.19599999 2:1 3:0.375 4:0.0099999998 5:0.667 10:1 43:0.015 44:1 53:1 57:0.30599999 87:0.23999999 90:1 91:0.80000001 92:0.57099998 93:0.42899999 98:0.25 99:0.077 100:0.154 101:0.182 110:1 111:1 114:1 124:1 133:0.375 163:0.16 166:0.833 167:0.85699999 168:0.26699999 169:0.5 170:0.082999997 172:0.14300001 173:0.086999997 174:0.333 175:0.191 176:0.052999999 178:0.086999997 179:0.111 180:0.167 185:1 188:0.5 190:1 201:1 209:0.375 210:0.0049999999 239:0.33199999 242:0.852 243:0.86199999 244:0.417 245:0.45199999 246:0.138 248:0.068999998 249:0.169 250:0.419 251:0.31799999 252:0.15899999 253:0.40000001 254:0.072999999 255:0.054000001 257:0.082999997 259:0.167 261:1 263:1 265:0.333 266:0.667 278:1 285:1 286:0.0040000002 315:0.17399999 316:0.082999997 317:1 318:0.833 319:0.80000001 320:0.273 321:0.333 322:0.077 323:0.082999997 324:0.1 325:0.077 326:0.15800001 327:0.25600001 328:0.2 329:0.21699999 330:0.050999999 331:0.041999999 332:0.2 336:0.041999999 337:0.80000001 338:0.5 339:1 342:1 #
-0.90000000000000002 1:0.322 2:1 3:0.35699999 4:0.0099999998 5:0.667 10:1 43:0.014 44:1 53:1 57:0.417 87:0.212 89:1 90:0.89499998 91:0.70899999 92:0.25 93:0.35299999 94:0.333 95:0.052999999 96:0.109 97:0.067000002 98:0.252 99:0.244 100:0.185 101:0.178 102:0.20299999 103:0.077 104:0.028999999 105:0.082000002 107:0.105 108:0.041000001 109:0.889 110:0.25 111:0.875 112:0.333 114:0.75 124:1 133:0.101 163:0.197 166:0.90899998 167:0.625 168:0.333 169:0.2 170:0.2 174:0.296 175:0.17200001 176:0.107 177:0.077 178:0.14300001 181:0.077 183:0.5 185:1 187:1 188:0.5 201:1 209:1 210:0.0020000001 239:0.23899999 242:1 243:0.889 244:0.222 245:0.5 246:0.60000002 251:0.273 252:0.546 253:0.1 254:0.45500001 261:1 262:0.667 263:1 265:1 278:1 285:0.625 286:0.0049999999 315:0.17399999 316:0.077 317:1 318:0.91299999 319:0.87099999 320:0.175 321:0.331 322:0.27500001 323:0.044 324:0.035 325:0.045000002 326:0.186 327:0.29899999 328:0.152 329:0.213 330:0.12899999 331:0.024 332:0.057 333:0.068000004 336:0.037999999 337:1 338:1 339:0.40000001 341:1 342:0.80000001 #
-0.13574711663617023 1:0.255 2:1 3:0.55000001 4:0.0099999998 5:0.667 10:1 43:0.015 44:1 53:1 57:0.64200002 87:0.125 90:0.95200002 91:0.87 92:0.118 93:0.25 94:0.056000002 95:0.048 96:0.086999997 97:0.113 98:0.082000002 99:0.15700001 100:0.14300001 101:0.086000003 102:0.059 103:0.063000001 108:0.032000002 109:1 111:1 114:1 124:1 133:0.59799999 163:0.301 164:0.167 166:1 167:1 168:0.111 169:0.69999999 170:0.14300001 173:0.2 174:0.14300001 175:0.57099998 176:0.333 177:0.5 178:0.067000002 179:0.111 185:1 186:1 187:1 189:1 190:1 201:1 209:0.255 210:0.011 239:0.171 242:1 243:0.90899998 244:0.222 245:0.625 246:0.222 250:0.182 251:0.389 252:0.2 254:0.235 260:0.25 263:1 266:1 278:1 285:1 286:0.0060000001 315:0.403 318:0.5 319:1 320:0.082999997 321:0.25 326:0.14300001 327:0.14300001 328:0.167 330:0.077 337:1 339:1 341:1 #
0.088736752849324349 1:0.50199997 2:1 3:0.389 4:0.029999999 5:0.60000002 7:1 43:0.050000001 44:1 50:1 57:0.186 58:0.021 87:1 128:1 133:0.57300001 134:0.023 139:1 163:0.125 169:1 175:0.5 #
-0.30378276853397335 1:0.43099999 2:1 3:0.63200003 4:0.046 5:0.71899998 7:1 43:0.064000003 44:1 50:1 57:0.61000001 58:0.0099999998 87:0.154 97:1.5 103:1 127:1 133:0.97600001 134:0.032000002 139:1 163:0.25 169:1 175:1 #
0.60041487268879268 1:0.255 2:1 3:0.35100001 4:0.0089999996 5:0.667 9:1 43:0.014 44:1 52:1 57:0.121 87:0.37799999 89:1 90:0.667 91:0.75 92:0.333 93:0.40000001 94:0.333 95:0.333 98:0.182 99:0.375 100:0.57099998 102:0.375 108:0.2 110:1 129:1 133:0.264 163:0.29300001 166:1 167:0.833 168:0.25 169:0.71399999 170:0.14300001 174:0.111 175:0.5 176:0.273 177:0.333 178:0.273 184:0.25 185:1 186:1 187:1 200:1 209:0.222 239:0.23999999 242:0.81300002 243:0.69199997 244:0.19400001 245:0.16 246:0.28600001 249:0.044 250:0.13600001 251:0.114 252:0.163 253:0.167 254:0.31099999 261:1 262:1 263:1 265:1 266:1 277:1 285:1 286:0.0020000001 315:0.228 316:0.182 318:0.667 319:0.76899999 320:0.222 321:0.40000001 322:0.31600001 324:0.154 325:0.212 326:0.156 327:0.25 328:0.107 329:0.167 330:0.32300001 331:0.118 333:0.059 337:0.60000002 338:0.5 342:1 354:1 361:0.32100001 362:0.0099999998 391:0.29100001 394:0.778 395:0.81800002 396:0.15000001 397:0.071000002 398:0.1 400:0.090999998 401:0.12 402:0.148 403:0.115 404:0.115 405:0.278 406:0.077 407:0.071000002 414:1 418:1 #
0.3556110511671205 1:0.82999998 2:1 3:0.461 4:5.1269999 5:0.94800001 6:1 19:1 43:6.1620002 44:1 50:1 58:1 63:1 87:0.31600001 90:1 91:0.5 92:0.40000001 93:1 97:0.333 98:0.333 99:0.167 101:0.14300001 103:0.25 114:1 #
0.27492156015532315 1:0.56199998 2:1 3:0.65499997 4:0.048 5:0.417 6:1 19:1 43:0.118 44:1 51:1 57:1 58:0.048999999 64:1 87:0.76200002 93:0.25 97:0.167 99:0.25 100:0.167 #
0.39814377830161435 1:0.484 2:1 3:0.551 4:0.028999999 5:0.25 7:1 19:1 43:0.121 44:1 51:1 57:0.197 58:0.16500001 64:1 87:0.75 #
-0.60705769426068523 1:0.66299999 2:1 3:0.60600001 4:0.046999998 5:0.44 7:1 19:1 43:0.11 44:1 50:1 57:1 58:0.046 63:1 87:0.35499999 88:0.333 90:1 92:0.25 93:0.5 94:0.2 96:1 97:0.57099998 98:0.5 99:0.42899999 100:0.2 101:2 103:1 #
-0.89999996515703218 1:0.60399997 2:1 3:1 4:0.012 5:0.25 7:1 19:1 43:0.046999998 44:1 50:1 57:0.27700001 58:0.097000003 63:1 87:0.722 93:0.278 94:0.278 96:0.375 97:0.167 102:0.611 103:0.375 #
0.90000000000000002 1:0.25400001 2:1 3:0.32600001 4:0.0099999998 5:0.667 10:1 43:0.015 44:1 53:1 57:0.39899999 87:0.213 89:1 90:0.89200002 91:0.704 92:0.25 93:0.35299999 94:0.333 95:0.054000001 96:0.111 97:0.067000002 98:0.25400001 99:0.24600001 100:0.186 101:0.15700001 102:0.204 103:0.078000002 104:0.028999999 105:0.082999997 107:0.105 108:0.041000001 109:0.889 110:0.25 111:0.875 112:0.333 114:0.75 124:1 133:0.102 163:0.206 166:0.89999998 167:0.57099998 168:0.333 169:0.2 170:0.2 174:0.308 175:0.17900001 176:0.111 177:0.082999997 178:0.148 181:0.082999997 183:0.5 185:1 187:1 188:0.5 201:1 209:1 210:0.0020000001 239:0.24600001 242:1 243:0.875 244:0.125 245:0.5 246:0.60000002 251:0.30000001 252:0.60000002 253:0.111 254:0.5 261:1 262:1 263:1 265:1 278:1 285:0.56300002 286:0.0060000001 315:0.17399999 316:0.077 317:1 318:0.91299999 319:0.87099999 320:0.177 321:0.331 322:0.27500001 323:0.044 324:0.035 325:0.045000002 326:0.18700001 327:0.28999999 328:0.152 329:0.215 330:0.13 331:0.025 332:0.057 333:0.052000001 336:0.037999999 337:1 338:1 339:0.40000001 341:1 342:0.80000001 #
0.19858305280222047 1:0.30500001 2:1 3:1 4:0.0070000002 5:0.667 10:1 43:0.0099999998 44:1 53:1 57:0.64399999 87:0.16500001 88:0.054000001 90:0.85100001 91:0.875 92:0.191 93:0.233 94:0.26899999 95:0.085000001 96:0.041999999 97:0.093999997 98:0.171 99:0.19499999 100:0.134 101:0.078000002 102:0.215 103:0.037999999 104:0.063000001 105:0.025 108:0.059999999 109:0.89999998 110:1 111:0.667 112:0.5 113:0.75 114:0.417 124:1 133:0.653 163:0.23199999 166:0.792 167:0.53299999 168:0.17200001 169:0.21699999 170:0.778 171:0.082999997 172:0.133 173:0.20900001 174:0.163 175:0.072999999 176:0.34999999 177:0.185 178:0.27900001 179:0.071000002 180:0.071000002 183:0.5 184:0.064999998 185:0.5 187:1 188:1 190:1 201:1 209:0.55199999 210:0.0060000001 239:0.19499999 242:1 243:0.85699999 244:0.167 245:0.25 246:0.667 252:0.57099998 254:0.667 261:1 262:1 263:1 278:1 285:0.653 286:0.0099999998 315:0.21699999 318:0.796 319:0.83700001 320:0.26899999 321:0.31400001 322:0.222 323:0.090999998 324:0.093000002 325:0.126 326:0.19599999 327:0.271 328:0.177 329:0.145 330:0.206 331:0.068000004 333:0.147 336:0.102 337:0.833 338:0.71399999 339:1 340:1 341:0.75 342:1 #
-0.33654262366421001 1:0.354 2:1 3:0.61400002 4:0.0049999999 5:0.2 7:1 43:0.025 44:1 50:1 57:0.42899999 58:0.014 87:0.44400001 100:0.333 127:1 133:0.449 134:0.014 137:1 163:0.28600001 168:0.5 173:1 174:0.5 #
-0.21298552089243847 1:0.12 2:1 3:1 4:0.0049999999 5:0.40000001 10:1 43:0.011 44:1 53:1 57:0.34 87:0.45500001 92:0.2 98:0.2 99:0.167 109:1 113:1 124:1 133:0.47299999 163:0.206 165:1 166:0.89300001 167:0.86400002 168:0.34599999 169:0.31799999 170:0.21699999 171:0.035999998 172:0.090999998 173:0.155 174:0.30899999 175:0.24600001 176:0.226 177:0.028000001 178:0.15899999 179:0.064999998 181:0.039000001 184:0.046999998 185:0.85699999 186:1 187:0.5 188:1 190:1 201:1 209:0.57999998 210:0.0040000002 239:0.221 242:0.88599998 243:0.83700001 244:0.29100001 245:0.28099999 246:0.2 247:0.057 249:0.046999998 250:0.23800001 251:0.219 252:0.243 253:0.22400001 254:0.15099999 255:0.030999999 257:0.024 260:0.059 261:1 262:1 263:1 265:0.40000001 266:0.75 278:1 285:0.44600001 286:0.0099999998 315:0.20200001 318:0.84600002 319:0.81800002 320:0.192 321:0.391 322:0.067000002 323:0.154 324:0.090999998 325:0.162 326:0.139 327:0.25 328:0.081 329:0.26699999 330:0.189 331:0.050000001 335:0.333 336:0.13600001 337:1 338:1 339:1 340:1 341:0.667 342:0.5 355:1 361:0.271 362:0.016000001 365:1 391:0.233 394:1 395:0.75 398:0.167 401:0.5 404:0.167 405:0.2 406:0.125 407:0.167 #
0.10843299897946929 1:0.41 2:1 3:0.33000001 4:0.025 5:0.60000002 7:1 43:0.041999999 44:1 48:1 57:1 58:0.0099999998 63:1 87:0.17200001 90:0.80000001 91:0.5 92:0.167 93:0.1 94:0.14300001 95:0.2 96:0.125 97:0.125 98:0.133 100:0.071000002 101:0.111 102:0.118 103:0.111 104:0.333 108:0.111 110:0.5 114:1 126:1 133:0.31200001 134:0.0089999996 163:0.36000001 166:0.75 167:1 168:0.40000001 169:0.333 171:0.25 174:0.40000001 175:0.25 176:0.25 177:1 178:0.25 184:0.25 #
-0.24411905646700247 1:0.25 2:1 3:0.28999999 4:0.0099999998 5:0.667 10:1 43:0.015 44:1 53:1 57:0.221 87:0.23800001 89:1 90:0.90899998 91:0.546 92:0.36000001 93:0.25 94:0.082999997 96:0.090999998 97:0.032000002 98:0.28099999 99:0.30000001 100:0.2 101:0.15800001 102:0.067000002 103:0.059 105:0.1 109:1 110:0.667 112:0.5 114:1 124:1 133:0.28999999 163:0.21699999 166:0.667 167:0.75 168:0.333 169:0.308 170:0.111 171:0.333 172:0.25 173:0.17399999 174:0.23800001 175:0.191 176:0.227 177:0.182 178:0.13600001 179:0.25 184:0.23100001 185:1 201:1 209:1 210:0.0020000001 239:0.264 240:0.063000001 242:0.875 243:0.86400002 244:0.39500001 245:0.42199999 246:0.23199999 247:0.075000003 248:0.029999999 249:0.11 250:0.36399999 251:0.27599999 252:0.18799999 253:0.264 254:0.20299999 255:0.035 256:0.067000002 257:0.064999998 260:0.041999999 261:0.778 262:0.625 263:1 264:0.25 265:1 266:1 278:1 285:0.28799999 286:0.0099999998 315:0.109 318:1 319:1 320:0.118 321:0.36399999 326:0.15000001 327:0.421 328:0.105 329:0.077 333:0.125 337:1 342:1 #
-0.17360650978428724 1:0.28 2:1 3:1 4:0.0089999996 5:0.71399999 6:1 43:0.013 44:1 50:1 57:0.93599999 58:0.0099999998 87:0.333 89:1 90:1 92:1 93:0.5 97:0.5 98:1 99:0.5 125:1 133:0.76599997 134:0.0049999999 163:0.52899998 164:1 168:0.333 170:0.5 173:0.25 174:0.333 176:0.5 177:0.5 178:1.6670001 #
-0.13653201032124176 1:0.5 2:1 3:0.55199999 4:0.0049999999 5:0.333 7:1 43:0.014 44:1 50:1 57:0.50599998 58:0.0099999998 87:0.125 89:1 90:1 94:0.5 96:1 98:0.5 102:0.25 103:1 104:1 #
-0.15607599932230903 1:0.22499999 2:1 3:0.292 4:0.0099999998 5:0.667 10:1 43:0.015 44:1 53:1 57:0.20299999 87:0.252 89:1 90:0.90899998 91:0.546 92:0.391 93:0.278 94:0.090999998 96:0.090999998 97:0.035999998 98:0.31 99:0.333 100:0.185 101:0.177 102:0.074000001 103:0.059 105:0.111 109:1 110:0.667 112:0.5 124:1 133:0.324 163:0.233 166:0.667 167:0.75 168:0.308 169:0.273 170:0.14300001 171:0.333 172:0.25 173:0.2 174:0.278 175:0.167 176:0.26300001 177:0.222 178:0.15800001 179:0.273 184:0.25 185:1 201:1 209:1 210:0.001 239:0.26899999 240:0.063000001 242:0.89499998 243:0.85500002 244:0.40000001 245:0.42500001 246:0.23899999 247:0.052999999 248:0.032000002 249:0.117 250:0.359 251:0.285 252:0.19 253:0.259 254:0.193 255:0.037 256:0.067000002 257:0.07 260:0.029999999 261:0.778 262:0.625 263:1 264:0.25 265:1 266:1 278:1 285:0.035999998 286:0.075000003 315:0.167 318:1 319:1 329:1 #
0.048276744631195315 1:0.226 2:1 3:1 8:1 43:0.037999999 44:1 49:1 57:0.88599998 58:0.011 61:1 87:0.25 91:1 127:1 133:0.62 134:0.015 137:1 163:0.458 166:0.667 168:0.333 172:1 173:0.80000001 174:0.5 179:0.5 190:1 200:1 209:0.57099998 210:0.016000001 213:1 239:0.25 243:1 245:1 251:2 261:1 #
0.08581127429353913 1:0.153 2:1 3:0.986 8:1 43:0.026000001 44:1 48:1 57:0.28400001 58:0.02 61:1 87:0.43799999 90:0.85699999 91:0.71399999 92:0.090999998 93:0.30000001 94:0.125 97:0.118 98:0.063000001 99:0.375 100:0.308 101:0.5 102:0.118 109:0.5 111:1 113:1 114:1 127:1 133:0.324 134:0.017000001 137:1 163:0.61500001 164:0.5 168:0.5 173:1 174:1 178:0.5 190:1 204:1 209:0.47299999 210:0.012 213:1 239:0.42500001 242:0.85699999 243:0.5 244:0.154 245:0.5 248:0.25 249:0.31299999 250:0.067000002 251:0.43799999 252:0.333 255:0.14300001 257:0.111 261:1 #
-0.47670510122725163 1:0.205 2:1 3:0.92500001 4:0.0060000001 5:0.667 9:1 43:0.0089999996 44:1 52:1 57:1 87:0.223 89:0.333 90:0.89999998 91:0.67900002 92:0.35299999 93:0.56800002 94:0.125 95:0.1 96:0.25 97:0.164 98:0.27900001 99:0.493 100:0.219 101:0.1 102:0.134 103:0.184 105:0.13600001 108:0.097000003 109:1 110:0.875 111:1 114:1 129:1 133:0.70300001 163:0.255 164:0.022 166:0.80500001 167:0.71600002 168:0.149 169:0.26699999 170:0.094999999 171:0.072999999 172:0.063000001 173:0.075999998 174:0.12800001 175:0.23899999 176:0.12899999 177:0.104 178:0.081 179:0.056000002 180:0.014 181:0.032000002 184:0.046999998 185:0.94400001 186:0.5 187:0.40000001 188:1 189:0.5 190:0.93300003 200:1 209:0.76800001 239:0.37099999 242:1 243:0.333 244:0.60000002 250:0.667 252:0.167 254:0.167 260:0.333 261:1 262:1 265:1 266:1 277:1 285:0.56699997 286:0.0049999999 315:0.25400001 316:0.059 317:1 318:1 319:0.81300002 320:0.40000001 321:0.34799999 322:0.28 324:0.063000001 325:0.178 326:0.38100001 327:0.23800001 328:0.27500001 329:0.28999999 330:0.205 331:0.041999999 333:0.167 337:1 339:0.333 340:0.60000002 341:1 342:1 354:1 361:0.62900001 362:0.0089999996 391:0.28299999 392:0.167 394:0.71399999 395:0.667 396:0.5 397:0.333 399:0.14300001 400:0.167 401:0.118 402:0.5 403:0.18799999 404:0.067000002 405:0.333 406:0.063000001 407:0.1 412:0.125 414:0.667 418:1 #
0.47195995539631236 1:0.171 2:1 3:0.50999999 4:0.034000002 5:0.69999999 10:1 43:0.048 44:1 53:1 57:0.61699998 87:0.222 91:1 92:1 98:0.5 114:1 124:1 133:0.92199999 163:0.20299999 164:0.088 165:0.333 166:0.833 167:0.71700001 168:0.15899999 169:0.361 170:0.145 171:0.071000002 172:0.113 173:0.153 174:0.14399999 175:0.228 176:0.222 177:0.219 178:0.17399999 179:0.098999999 180:0.077 181:0.041000001 184:0.068999998 185:0.875 186:0.5 187:0.273 188:0.40000001 189:0.5 190:1 201:1 209:0.833 210:0.003 239:0.29899999 242:0.667 243:0.55599999 244:0.118 245:0.222 246:0.44400001 247:0.333 250:0.294 251:0.14300001 254:0.5 260:0.2 261:1 278:1 285:0.30700001 286:0.016000001 315:0.155 318:0.89999998 319:0.71399999 320:0.105 321:0.333 326:0.12 327:0.2 328:0.039000001 329:0.056000002 333:0.071000002 337:1 355:1 361:1 362:0.017000001 367:1 391:0.227 392:0.111 393:1 394:0.84600002 395:0.55599999 396:0.28600001 397:0.47799999 398:0.235 399:0.077 400:0.111 401:0.14300001 402:0.118 403:0.40000001 404:0.121 405:0.182 406:0.2 407:0.059 412:0.118 413:0.5 414:0.80000001 415:1 418:1 #
0.18592678609350813 1:0.65399998 2:1 3:0.52600002 4:0.252 5:0.56800002 7:1 19:1 43:0.484 44:1 50:1 58:1 63:1 87:0.75 97:1 100:1 101:1 102:1 103:1 #
0.16785606193933503 1:0.47 2:1 3:0.62 4:0.015 5:0.42899999 7:1 43:0.035 44:1 50:1 57:0.97000003 58:0.0060000001 87:0.5 96:1 97:1 103:1 128:1 133:0.55699998 134:0.022 139:1 163:1 #
0.32776389182873905 1:0.40599999 2:1 3:0.76099998 4:0.022 5:0.60000002 7:1 43:0.037 44:1 52:1 57:0.741 58:0.026000001 63:1 87:0.71399999 92:1 93:0.5 94:1 96:1 97:2 98:2 99:0.5 100:1 102:1 103:1 126:1 133:0.186 134:0.029999999 163:0.42899999 167:1 168:0.5 186:1 #
-0.091117286645452031 1:0.37599999 2:1 3:0.37900001 4:0.029999999 5:0.60000002 7:1 43:0.050999999 44:1 50:1 57:1 58:0.0040000002 87:1 124:1 133:0.248 134:0.050999999 139:1 163:1 170:1 178:1 #
-0.37347330644709803 1:0.113 2:1 3:1 4:0.0060000001 5:0.40000001 10:1 43:0.015 44:1 53:1 57:0.38800001 87:0.40599999 90:1 91:1 124:1 133:0.58700001 163:0.245 166:0.92900002 167:0.889 168:0.42899999 169:0.5 170:0.21699999 171:0.071000002 172:0.037 173:0.146 174:0.38299999 175:0.34799999 176:0.255 177:0.192 178:0.149 179:0.057 180:0.082999997 184:0.046 185:1 186:1 187:1 188:1 189:1 190:1 201:1 209:0.74599999 210:0.0040000002 239:0.20200001 240:0.082999997 242:0.917 243:0.60900003 244:0.237 245:0.213 246:0.133 247:0.041999999 249:0.063000001 250:0.221 251:0.23100001 252:0.171 253:0.25 254:0.075000003 256:0.059 257:0.067000002 260:0.02 261:1 262:1 263:0.5 265:0.5 266:1 278:1 285:0.792 286:0.0070000002 315:0.23999999 317:0.5 318:0.727 319:0.625 320:0.38999999 321:0.243 322:0.2 324:0.063000001 325:0.054000001 326:0.36399999 327:0.21799999 328:0.148 329:0.167 330:0.074000001 331:0.107 333:0.056000002 335:0.14300001 336:0.030999999 337:1 338:0.333 340:0.333 341:0.5 342:0.57099998 355:1 361:0.205 362:0.028000001 365:1 391:0.56800002 394:1 395:0.5 401:0.167 403:0.5 404:0.167 405:0.57099998 #
-0.073638255489658022 1:0.142 2:1 3:1 4:0.013 5:0.57099998 10:1 43:0.023 44:1 53:1 57:0.53100002 87:0.375 90:1 124:1 133:0.65100002 163:0.24699999 166:0.92299998 167:0.92299998 168:0.46900001 169:0.48300001 170:0.23800001 171:0.077 172:0.039000001 173:0.156 174:0.40900001 175:0.34900001 176:0.273 177:0.17399999 178:0.15899999 179:0.061000001 180:0.082999997 184:0.050000001 185:1 186:1 187:1 188:1 189:1 190:1 201:1 209:0.74800003 210:0.0040000002 239:0.20100001 240:0.082999997 242:0.95200002 243:0.63200003 244:0.264 245:0.2 246:0.14300001 247:0.048 249:0.056000002 250:0.243 251:0.211 252:0.15899999 253:0.273 254:0.082999997 256:0.063000001 257:0.067000002 260:0.023 261:1 262:1 263:0.5 265:0.5 266:1 278:1 285:0.95300001 286:0.0070000002 315:0.23800001 317:0.5 318:0.76200002 319:0.60000002 320:0.368 321:0.257 322:0.235 324:0.067000002 325:0.057 326:0.308 327:0.23100001 328:0.155 329:0.182 330:0.079999998 331:0.12 333:0.059 335:0.167 336:0.032000002 337:1 338:0.333 340:0.333 341:0.5 342:0.57099998 355:1 361:0.259 362:0.048 367:1 391:0.579 394:1 395:1 403:1 405:0.75 #
0.20618620084159858 1:0.565 2:1 3:1 4:0.0049999999 5:0.28600001 8:1 43:0.017000001 44:1 52:1 57:0.113 58:0.079000004 63:1 87:0.667 91:1 93:1 102:4 108:1 #
0.15823267916967229 1:0.47600001 2:1 3:0.579 4:0.02 5:0.5 7:1 17:1 43:0.039999999 44:1 50:1 57:1 58:0.017000001 63:1 87:0.5 91:0.5 93:0.667 94:0.667 102:2.3329999 #
0.11631673428470209 1:0.40400001 2:1 3:0.36300001 4:0.0049999999 5:0.2 7:1 43:0.025 44:1 48:1 57:0.42300001 58:0.0089999996 61:1 87:1 102:3 108:1 126:1 133:0.289 134:0.013 163:1 188:1 #
-0.13611009978163335 1:0.234 2:1 3:0.90700001 4:0.0049999999 5:0.40000001 10:1 43:0.013 44:1 51:1 57:0.484 58:0.0099999998 61:1 87:0.169 90:0.92900002 91:0.889 92:0.16 93:0.235 94:0.36399999 96:0.056000002 97:0.090999998 98:0.167 99:0.19400001 100:0.2 101:0.2 102:0.242 103:0.039999999 104:0.2 107:0.5 108:0.046 109:1 110:1 111:1 112:1 124:1 133:0.44800001 163:0.26499999 166:1 167:0.75 168:0.2 169:0.5 170:0.1 173:0.090999998 174:0.14300001 175:0.47600001 176:0.28600001 177:0.071000002 178:0.046 181:0.14300001 185:1 201:1 209:0.46399999 210:0.0049999999 239:0.215 242:0.778 243:0.85699999 244:0.255 245:0.31799999 246:0.226 247:0.056000002 248:0.14300001 249:0.15899999 250:0.191 251:0.213 252:0.14 253:0.075000003 254:0.233 255:0.107 257:0.125 260:0.107 261:1 262:1 263:1 264:1 265:1 266:1 278:1 285:1 286:0.0049999999 315:0.248 316:0.2 318:0.778 319:0.625 320:0.278 321:0.2 322:0.35699999 324:0.063000001 325:0.2 326:0.2 327:0.039999999 328:0.21699999 329:0.389 330:0.31999999 331:0.1 337:1 338:1 339:1 #
-0.099989095535314834 1:0.118 2:1 3:0.64600003 4:0.028000001 5:0.667 10:1 43:0.041999999 44:1 53:1 57:0.59200001 87:0.244 90:1 92:0.333 98:0.28600001 100:0.125 124:1 133:0.34799999 163:0.21699999 166:1 167:1 168:0.333 169:1 174:0.333 175:0.333 176:0.2 201:1 209:0.60399997 210:0.0049999999 239:0.27700001 240:0.214 242:0.727 243:0.70599997 244:0.42399999 245:0.59299999 246:0.28600001 247:0.273 248:0.177 249:0.089000002 250:0.42899999 251:0.42899999 252:0.108 253:0.185 254:0.31 255:0.097000003 256:0.222 257:0.133 260:0.15000001 261:1 262:0.667 263:0.75 264:1 266:1 278:1 285:1 286:0.0060000001 315:0.16 318:0.667 319:1 320:0.60000002 323:0.333 326:0.30000001 327:0.125 328:0.222 329:0.14300001 330:0.125 333:0.25 336:0.167 337:1 342:1 355:1 361:0.27399999 362:0.061999999 367:1 391:0.43799999 394:1 395:1 396:1 402:0.333 403:0.333 405:0.333 406:0.333 413:1 #
0.20916812565827236 1:0.465 2:1 3:0.58899999 4:0.0049999999 5:0.333 7:1 43:0.016000001 44:1 50:1 57:0.359 58:0.017000001 87:0.14300001 91:1 102:2 #
0.90000000000000002 1:0.30899999 2:1 3:0.32800001 4:0.0049999999 5:0.2 7:1 43:0.025 44:1 50:1 57:0.20299999 58:0.016000001 127:1 133:0.29499999 134:0.011 137:1 #
0.19488755909742667 1:0.458 2:1 3:0.38699999 4:0.0049999999 5:0.2 7:1 43:0.026000001 44:1 50:1 57:0.41 58:0.0099999998 128:1 133:1 134:0.0040000002 137:1 163:0.71399999 171:1 174:0.5 178:2 184:1 #
-0.89999999835895239 1:0.38499999 2:1 3:1 4:0.0040000002 5:0.2 7:1 43:0.018999999 44:1 50:1 57:0.852 58:0.0089999996 87:0.46200001 97:1 100:0.333 101:1 127:1 133:0.44 134:0.017000001 137:1 163:0.38499999 168:0.5 174:0.5 177:0.333 178:0.5 #
-0.28417056782221467 1:0.24699999 2:1 3:0.745 4:0.0070000002 5:0.667 10:1 43:0.011 44:1 53:1 57:1 87:0.241 90:1 91:0.42899999 92:0.25 93:0.57099998 94:0.60000002 97:0.14300001 98:0.23100001 99:0.57099998 100:0.154 101:0.090999998 102:0.214 124:1 133:0.53600001 163:0.233 165:1 166:0.70300001 167:0.71399999 168:0.189 169:0.055 170:0.096000001 171:0.054000001 173:0.071000002 174:0.229 175:0.061999999 176:0.16500001 177:0.18099999 178:0.089000002 181:0.025 184:0.033 185:1 186:1 187:1 188:1 189:0.333 190:0.5 201:1 209:0.54400003 210:0.0049999999 239:0.22499999 240:0.111 241:0.75 242:0.80900002 243:0.755 244:0.31999999 245:0.35299999 246:0.205 247:0.17 248:0.15099999 249:0.096000001 250:0.28299999 251:0.329 252:0.192 253:0.162 254:0.221 255:0.108 256:0.028999999 257:0.138 260:0.13 261:1 262:1 263:0.889 264:0.5 265:0.57099998 266:0.75 278:1 285:0.55000001 286:0.0089999996 315:0.18700001 316:0.133 317:1 318:0.912 319:0.88599998 320:0.18799999 321:0.37900001 322:0.34400001 323:0.059 324:0.023 325:0.046 326:0.205 327:0.32600001 328:0.193 329:0.20999999 330:0.17200001 331:0.017000001 332:0.052999999 333:0.097000003 336:0.057 337:1 339:0.40000001 341:1 342:1 #
0.90000000000000002 1:0.315 2:1 3:0.81 4:0.0049999999 5:0.2 7:1 43:0.024 44:1 50:1 57:0.78399998 58:0.0099999998 87:0.28600001 101:1 127:1 133:0.219 134:0.035 137:1 163:0.2 #
0.4644303349878065 1:0.308 2:1 3:1 8:1 43:0.021 44:1 48:1 57:0.07 58:0.093000002 61:1 87:0.75 97:3 101:2 125:1 133:0.69599998 134:0.0099999998 137:1 #
-0.65039082527876135 1:0.206 2:1 3:0.64399999 4:0.018999999 5:0.625 10:1 43:0.029999999 44:1 53:1 57:1 87:0.229 90:0.85699999 91:0.5 92:0.36399999 93:0.44400001 94:0.60000002 97:0.105 98:0.333 99:0.421 100:0.389 101:0.063000001 102:0.15800001 124:1 133:0.56599998 163:0.234 165:1 166:0.71100003 167:0.69499999 168:0.183 169:0.054000001 170:0.111 171:0.052999999 173:0.075999998 174:0.219 175:0.059 176:0.167 177:0.208 178:0.102 181:0.023 184:0.030999999 185:1 186:1 187:1 188:1 189:0.333 190:0.5 201:1 209:0.59799999 210:0.0040000002 239:0.226 240:0.111 241:0.75 242:0.81599998 243:0.764 244:0.32499999 245:0.352 246:0.214 247:0.163 248:0.146 249:0.098999999 250:0.28099999 251:0.32499999 252:0.205 253:0.164 254:0.22 255:0.103 256:0.026000001 257:0.133 260:0.124 261:1 262:1 263:0.889 264:0.5 265:0.57099998 266:0.75 278:1 285:0.47799999 286:0.0099999998 315:0.175 316:0.133 317:1 318:0.88599998 319:0.88 320:0.17299999 321:0.38299999 322:0.333 323:0.057 324:0.039999999 325:0.052000001 326:0.186 327:0.31600001 328:0.17200001 329:0.18099999 330:0.167 331:0.028999999 332:0.046 333:0.079000004 336:0.052000001 337:1 339:0.40000001 341:1 342:1 355:1 361:0.31400001 362:0.037 367:1 391:0.29699999 394:1 395:0.667 396:0.44400001 397:0.42899999 398:0.25 402:0.31299999 403:0.2 404:0.26699999 405:0.86699998 406:0.067000002 415:1 #
-0.86304762280399794 1:0.42500001 2:1 3:1 4:0.0049999999 5:0.2 7:1 43:0.025 44:1 50:1 57:0.74400002 58:0.013 127:1 133:0.69800001 134:0.014 137:1 #
0.15687488863227345 1:0.29300001 2:1 3:0.50700003 4:0.0049999999 5:0.2 7:1 43:0.025 44:1 50:1 57:0.199 58:0.025 127:1 133:0.55599999 134:0.0089999996 137:1 163:1 #
0.015927157156416582 1:0.38299999 2:1 3:0.461 4:0.0049999999 5:0.2 7:1 43:0.023 44:1 50:1 57:0.15899999 58:0.025 87:0.792 92:0.25 98:1.5 99:0.25 102:0.25 127:1 133:1 134:0.0040000002 137:1 163:0.667 164:1 168:0.25 173:0.5 174:0.25 176:0.25 178:0.5 #
-0.078002023674878698 1:0.389 2:1 3:0.46700001 4:0.0049999999 5:0.2 7:1 43:0.025 44:1 50:1 57:0.25 58:0.017999999 87:0.14300001 127:1 133:0.205 134:0.022 137:1 163:0.5 173:1.5 179:0.5 #
-0.44450925475322584 1:0.37200001 2:1 3:0.38699999 4:0.0049999999 5:0.2 7:1 43:0.025 44:1 50:1 57:0.377 58:0.0099999998 87:0.26300001 96:1 103:0.5 127:1 133:0.149 134:0.026000001 137:1 163:0.211 #
0.23285060084078196 1:0.34200001 2:1 3:0.81099999 4:0.029999999 5:0.667 6:1 43:0.045000002 44:1 49:1 57:0.161 58:0.025 87:0.5 96:1 97:2 103:1 126:1 133:0.64999998 134:0.012 163:0.5 168:1 174:2 203:1 209:0.528 210:0.044 215:1 #
-0.084120831067463306 1:0.32699999 2:1 3:0.70599997 4:0.0060000001 5:0.25 7:1 43:0.024 44:1 50:1 57:1 58:0.0070000002 87:0.47400001 90:0.5 92:0.25 96:1 97:1.3329999 98:0.5 99:0.333 101:0.5 103:0.5 128:1 133:0.70899999 134:0.0099999998 137:1 #
0.09367855991037112 1:0.29100001 2:1 3:0.428 4:0.0049999999 5:0.2 7:1 43:0.025 44:1 50:1 57:1 58:0.0040000002 91:1 127:1 133:0.32499999 134:0.013 137:1 163:0.333 #
0.018077472842210535 1:0.26800001 2:1 3:0.764 4:0.0060000001 5:0.25 7:1 43:0.024 44:1 50:1 57:0.40400001 58:0.017999999 87:1 92:1 97:1 98:2 127:1 133:0.82300001 134:0.0089999996 137:1 163:0.40000001 173:2 204:1 209:0.303 212:1 #
0.66150740816784714 1:0.57800001 2:1 3:0.80199999 4:0.0049999999 5:0.333 7:1 43:0.015 44:1 50:1 57:1 58:0.0080000004 87:0.5 96:1 97:3 103:1 #
0.24116730305145095 1:0.24699999 2:1 3:0.53899997 8:1 43:0.017999999 44:1 52:1 57:0.48800001 60:1 125:1 133:0.41100001 134:0.012 137:1 163:0.833 168:1 174:1 #
0.10132213104610484 1:0.39899999 2:1 3:1 4:0.0040000002 5:0.25 7:1 43:0.017999999 44:1 50:1 57:0.102 58:0.068000004 87:0.38100001 91:0.5 92:0.14300001 93:0.333 94:0.333 98:0.125 99:0.28600001 100:0.14300001 101:0.333 102:0.28600001 127:1 133:0.92299998 134:0.0080000004 137:1 163:0.31299999 168:1 173:0.333 174:0.333 175:0.333 177:0.5 #
-0.32192191147822952 1:0.24600001 2:1 3:1 4:0.0040000002 5:0.2 7:1 43:0.022 44:1 48:1 57:0.75700003 58:0.011 61:1 87:0.71399999 93:1 97:4 99:1 126:1 133:0.68599999 134:0.012 163:0.28600001 #
-0.35662090351245546 1:0.52100003 2:1 3:0.74400002 4:0.0060000001 5:0.333 7:1 43:0.018999999 44:1 50:1 57:1 58:0.0089999996 87:1 96:1 97:3 102:1 103:1 #
-0.087896891113721551 1:0.30599999 2:1 3:0.34599999 4:0.0099999998 5:0.71399999 11:1 43:0.014 44:1 48:1 57:0.34599999 87:1 96:1 97:2 103:1 125:1 133:0.19499999 134:0.0070000002 202:1 209:1 210:0.003 239:0.25 245:1 251:1.5 252:0.5 #
-0.56656495296685283 1:0.39500001 2:1 3:1 4:0.0049999999 5:0.333 8:1 43:0.015 44:1 49:1 57:0.50199997 58:0.02 63:1 87:0.667 93:1 94:1 96:1 97:2.5 102:1 103:1 #
0.20512315485175561 1:0.41100001 2:1 3:0.491 8:1 43:0.025 44:1 48:1 57:0.60799998 58:0.0080000004 61:1 87:0.60000002 96:1 97:1 102:1 103:1 108:1 #
0.33346624289949156 1:0.29899999 2:1 3:0.68099999 4:0.0070000002 5:0.667 9:1 43:0.0099999998 44:1 52:1 57:0.54400003 87:0.31799999 89:1 90:0.80000001 91:0.833 92:0.63599998 93:0.80000001 94:0.167 95:0.2 96:0.167 98:0.667 99:0.46200001 100:0.222 101:1.1670001 102:0.23100001 103:0.111 105:0.125 108:0.14300001 109:1 110:1 124:1 133:1 163:0.233 164:0.40000001 165:1 166:0.824 167:0.69199997 168:0.34400001 169:0.167 170:0.14300001 171:0.059 173:0.13 174:0.28600001 175:0.071000002 176:0.108 177:0.345 178:0.068000004 180:0.2 184:0.033 185:1 186:0.25 187:1 190:1 201:1 209:0.45100001 210:0.0049999999 239:0.17200001 242:1 243:0.5 244:0.2 245:0.333 246:0.5 250:0.40000001 251:0.167 254:0.167 263:1 278:1 285:0.491 286:0.0089999996 315:0.123 318:0.92000002 319:0.91299999 320:0.14 321:0.13 322:0.082999997 323:0.079999998 324:0.044 325:0.085000001 326:0.167 327:0.106 328:0.026000001 329:0.041999999 330:0.104 331:0.028000001 333:0.041999999 336:0.061000001 337:1 340:1 341:1 342:1 #
0.076193336066181686 1:0.31200001 2:1 3:0.61900002 4:0.0070000002 5:0.667 9:1 43:0.011 44:1 52:1 57:0.479 87:0.32100001 89:1 90:1 91:0.80000001 92:0.60000002 93:0.75 94:0.2 96:0.2 98:0.69999999 99:0.45500001 100:0.28600001 101:1.1670001 102:0.090999998 103:0.125 105:0.14300001 109:1 110:1 124:1 133:1 163:0.23899999 164:0.44400001 165:1 166:0.81300002 167:0.69199997 168:0.36700001 169:0.167 170:0.14300001 171:0.063000001 173:0.13600001 174:0.30000001 175:0.075000003 176:0.114 177:0.345 178:0.071000002 180:0.2 184:0.035999998 186:0.25 187:1 190:1 201:1 209:0.433 210:0.0049999999 239:0.2 243:1 244:1 246:1 250:2 254:0.5 278:1 285:0.47400001 286:0.0089999996 315:0.124 318:0.917 319:0.90899998 320:0.146 321:0.14300001 322:0.090999998 323:0.082999997 324:0.046 325:0.089000002 326:0.17399999 327:0.111 329:0.041999999 330:0.109 331:0.028999999 333:0.041999999 336:0.063000001 337:1 340:1 341:1 342:1 #
0.044508768816903521 1:0.249 2:1 3:1 4:0.024 5:0.64300001 6:1 43:0.037 44:1 52:1 57:0.296 58:0.017999999 61:1 87:0.259 88:0.039999999 90:0.76899999 91:0.73299998 92:0.175 93:0.26300001 94:0.164 96:0.022 97:0.072999999 98:0.20200001 99:0.23999999 100:0.075999998 101:0.059 102:0.12899999 103:0.027000001 104:0.068999998 105:0.021 106:0.090999998 108:0.015 109:1 110:0.5 111:0.60000002 112:0.5 114:0.833 129:1 133:0.551 134:0.041999999 139:1 163:0.20999999 164:0.039000001 165:0.5 166:0.89200002 167:0.71100003 168:0.178 169:0.391 170:0.32699999 171:0.081 172:0.044 173:0.037 174:0.12 175:0.28200001 176:0.213 177:0.17900001 178:0.23899999 179:0.032000002 181:0.064999998 183:0.111 184:0.072999999 185:1 186:0.25 187:0.333 188:0.5 189:0.667 190:0.833 201:1 209:0.54400003 210:0.0049999999 239:0.186 240:0.029999999 241:0.60000002 242:0.79299998 243:0.80500001 244:0.244 245:0.35100001 246:0.146 247:0.138 248:0.072999999 249:0.064999998 250:0.21799999 251:0.229 252:0.15800001 253:0.134 254:0.14399999 255:0.052999999 257:0.13 260:0.097999997 261:1 262:0.60000002 263:0.667 265:0.667 266:0.75 278:1 285:0.86500001 286:0.0060000001 315:0.131 318:1 319:0.833 320:0.105 321:0.067000002 326:0.090999998 327:0.050000001 329:0.056000002 337:1 339:1 342:1 #
0.059616039726680843 1:0.21799999 2:1 3:0.24600001 4:0.0099999998 5:0.667 9:1 43:0.015 44:1 52:1 57:0.237 87:0.214 90:0.60000002 91:1 99:0.125 100:0.28600001 101:0.25 102:0.125 114:1 124:1 133:1 163:0.30000001 164:0.090999998 165:1 166:1 167:0.64700001 168:0.42899999 169:0.5 170:0.333 172:0.177 173:0.237 174:0.308 175:0.56800002 176:0.118 177:0.191 178:0.237 179:0.111 180:0.25 181:0.28600001 184:0.063000001 185:1 186:0.25 201:1 209:0.273 210:0.0049999999 239:0.191 242:1 243:1 244:0.25 245:0.40000001 250:0.25 251:0.375 252:0.125 264:1 266:1 278:1 285:0.259 286:0.0089999996 315:0.227 318:0.80000001 319:1 320:0.30000001 321:0.5 323:0.2 326:0.167 327:0.308 328:0.090999998 329:0.2 330:0.077 335:0.5 336:0.111 337:1 339:1 #
0.11533029392512387 1:0.296 2:1 3:0.41299999 4:0.0099999998 5:0.667 10:1 43:0.015 44:1 53:1 57:1 87:0.186 88:0.25 90:1 91:0.833 92:0.28600001 93:0.278 94:0.154 96:0.056000002 97:0.147 98:0.324 99:0.257 100:0.17200001 101:0.13600001 102:0.177 103:0.041999999 105:0.118 108:0.105 109:1 111:0.5 114:0.5 124:1 133:0.31099999 163:0.33000001 165:1 166:1 167:0.57099998 168:0.35699999 169:0.44400001 170:0.14300001 174:0.235 175:0.2 176:0.5 177:0.45500001 178:0.059 185:1 190:1 201:1 209:0.60100001 210:0.003 239:0.221 242:0.76899999 243:0.727 245:0.40000001 246:0.14300001 247:0.23100001 248:0.090999998 249:0.039000001 251:0.308 252:0.182 253:0.125 254:0.23100001 255:0.067000002 257:0.5 260:0.222 261:1 263:1 265:1 266:1 278:1 285:0.41999999 286:0.0099999998 315:0.32100001 318:0.25 319:1 320:0.42899999 321:0.42899999 322:0.333 326:0.182 327:0.40000001 328:0.2 329:0.57099998 330:0.333 335:0.5 337:1 338:1 342:1 #
0.31832766978122823 1:0.435 2:1 3:0.73900002 4:0.0040000002 5:0.333 7:1 43:0.013 44:1 50:1 57:0.65499997 58:0.0099999998 87:0.333 94:1 97:1 102:1 103:1 #
0.093037583323500817 1:0.28999999 2:1 3:0.317 4:0.033 5:0.69999999 10:1 43:0.046999998 44:1 53:1 57:0.186 87:0.18799999 90:1 91:0.5 114:1 124:1 133:0.29499999 163:0.28999999 166:1 178:0.333 185:1 187:1 201:1 209:1 210:0.0020000001 239:0.27599999 240:0.063000001 242:0.85699999 243:0.76899999 244:0.41800001 245:0.359 246:0.23100001 247:0.094999999 248:0.077 249:0.20999999 250:0.46399999 251:0.28600001 252:0.164 253:0.25600001 254:0.161 255:0.090999998 256:0.071000002 257:0.082999997 260:0.061000001 261:1 263:1 265:1 266:1 278:1 285:0.294 286:0.0099999998 315:0.233 318:0.76899999 319:0.25 320:0.235 321:0.18799999 322:0.75 323:0.154 324:0.125 325:0.21699999 326:0.2 327:0.086999997 328:0.227 329:0.177 330:0.34799999 331:0.067000002 336:0.118 339:1 342:1 355:1 361:0.34200001 362:0.029999999 367:1 391:0.17200001 392:0.5 394:1 395:0.833 396:0.235 397:0.417 398:0.090999998 400:0.082999997 401:0.059 402:0.222 403:0.278 404:0.077 406:0.177 407:0.077 409:0.167 #
0.29809120503887199 1:0.183 2:1 3:0.43200001 4:0.0099999998 5:0.40000001 10:1 43:0.025 44:1 53:1 57:0.34599999 87:0.30199999 90:1 91:0.5 94:0.333 102:0.25 104:0.5 109:1 113:1 114:1 124:1 133:0.45300001 163:0.25400001 165:1 166:1 167:0.76899999 168:0.333 169:0.43799999 170:0.294 172:0.077 173:0.206 174:0.34400001 175:0.28099999 176:0.25799999 177:0.31799999 178:0.206 179:0.052999999 181:0.133 185:1 187:0.5 188:1 189:1 190:1 201:1 209:0.44400001 210:0.0049999999 239:0.24600001 241:1 242:0.889 243:0.375 244:0.167 245:0.56300002 248:0.25 249:0.167 250:0.208 251:0.458 252:0.2 253:0.30000001 255:0.2 257:0.125 259:1 261:1 263:0.333 278:1 285:1 286:0.0040000002 315:0.34999999 323:1 325:0.14300001 326:0.111 327:0.333 329:0.333 330:0.167 332:0.25 333:0.5 335:1 336:0.5 338:1 342:1 355:1 361:0.037 362:0.105 365:1 391:0.333 415:1 #
0.15370586543350956 1:0.29100001 2:1 3:1 4:0.0040000002 5:0.667 10:1 43:0.0049999999 44:1 53:1 57:0.68000001 87:0.186 90:0.833 91:0.85699999 92:0.071000002 93:0.40000001 94:0.125 98:0.059 99:0.167 100:0.177 101:0.23100001 102:0.222 105:0.090999998 108:0.2 109:1 111:1 124:1 133:0.63200003 163:0.27000001 165:1 166:1 167:0.667 168:0.182 169:0.45500001 170:0.25 172:0.167 173:0.063000001 174:0.375 175:0.42899999 176:0.214 177:0.38499999 178:0.063000001 179:0.1 180:0.2 181:0.333 185:1 190:1 201:1 209:0.44299999 210:0.0040000002 239:0.245 242:1 243:1 244:0.5 245:0.71399999 246:0.5 249:0.111 250:0.25 251:0.625 253:0.25 254:0.25 261:1 263:1 278:1 285:0.35100001 286:0.0099999998 315:0.26899999 316:0.25 318:0.80000001 319:0.80000001 322:1 323:0.2 326:0.1 327:0.222 328:0.30000001 329:0.14300001 330:0.375 332:0.25 333:0.14300001 336:0.167 #
0.65056254877117181 1:0.45300001 2:1 3:1 4:0.057 5:0.5 7:1 19:1 43:0.118 44:1 50:1 57:0.83600003 58:0.096000001 63:1 87:0.708 91:0.25 93:0.667 94:0.667 96:0.625 97:0.5 102:0.667 103:0.625 114:1 #
-0.40058606540633523 1:0.25299999 2:1 3:1 4:0.017000001 5:0.625 10:1 43:0.027000001 44:1 53:1 57:0.597 87:0.23899999 90:1 91:0.42899999 92:0.25 93:0.5 94:0.60000002 97:0.082999997 98:0.273 99:0.5 100:0.182 102:0.25 124:1 133:0.69 163:0.23199999 165:1 166:0.69400001 167:0.722 168:0.191 169:0.055 170:0.096000001 171:0.056000002 173:0.071999997 174:0.234 175:0.063000001 176:0.15800001 177:0.186 178:0.090000004 181:0.026000001 184:0.034000002 185:1 186:1 187:1 188:1 189:0.333 190:0.5 201:1 209:0.69599998 210:0.0049999999 239:0.223 240:0.086000003 241:0.75 242:0.80900002 243:0.75 244:0.317 245:0.347 246:0.205 247:0.17 248:0.154 249:0.097000003 250:0.28 251:0.32100001 252:0.19400001 253:0.16500001 254:0.22400001 255:0.111 256:0.028999999 257:0.14 260:0.133 261:1 262:1 263:0.889 264:0.5 265:0.667 266:0.75 278:1 285:0.64399999 286:0.0099999998 315:0.189 316:0.133 318:0.90899998 319:0.88599998 320:0.19400001 321:0.38600001 322:0.32300001 323:0.061000001 324:0.023 325:0.046999998 326:0.214 327:0.34099999 328:0.2 329:0.22 330:0.169 331:0.017000001 333:0.107 336:0.059999999 337:1 339:0.40000001 341:1 342:1 355:1 361:0.59899998 362:0.027000001 367:1 391:0.347 394:1 395:0.71399999 396:0.25 397:0.75 402:0.111 403:0.375 404:0.25 405:1.125 #
0.057500526953074192 1:0.41299999 2:1 3:0.82200003 4:0.0049999999 5:0.2 7:1 43:0.025 44:1 50:1 57:0.80299997 58:0.0099999998 87:0.333 127:1 133:0.37599999 134:0.022 137:1 163:0.60000002 168:1 174:2 #
-0.19680637034483139 1:0.49200001 2:1 3:0.289 4:0.0049999999 5:0.333 7:1 43:0.015 44:1 50:1 57:1 58:0.003 87:0.25 96:1 97:0.5 103:1 #
0.89999999999999969 1:0.177 2:1 3:0.77100003 4:0.017000001 5:0.625 10:1 43:0.027000001 44:1 53:1 57:1 87:0.24699999 90:1 91:0.42899999 92:0.25 93:0.5 94:0.60000002 97:0.154 98:0.25 99:0.46200001 100:0.167 101:0.1 102:0.23100001 124:1 133:0.56199998 163:0.233 165:1 166:0.69400001 167:0.70899999 168:0.191 169:0.055 170:0.096000001 171:0.056000002 173:0.071000002 174:0.23199999 175:0.063000001 176:0.15700001 177:0.183 178:0.089000002 181:0.026000001 184:0.033 185:1 186:1 187:1 188:1 189:0.333 190:0.5 201:1 209:0.54299998 210:0.0049999999 239:0.22400001 240:0.111 241:0.75 242:0.80900002 243:0.75 244:0.315 245:0.347 246:0.205 247:0.17 248:0.154 249:0.096000001 250:0.27900001 251:0.31900001 252:0.193 253:0.164 254:0.222 255:0.11 256:0.028999999 257:0.138 260:0.132 261:1 262:1 263:0.889 264:0.5 265:0.57099998 266:0.75 278:1 285:0.51599997 286:0.0099999998 315:0.18700001 316:0.133 317:1 318:0.90899998 319:0.88599998 320:0.191 321:0.37900001 322:0.32300001 323:0.061000001 324:0.023 325:0.046999998 326:0.20900001 327:0.333 328:0.19499999 329:0.213 330:0.16500001 331:0.017000001 332:0.056000002 333:0.103 336:0.057999998 337:1 339:0.40000001 341:1 342:1 355:1 361:0.42199999 362:0.029999999 367:1 391:0.382 394:1 395:0.71399999 396:0.40000001 397:0.75 398:0.25 402:0.2 403:0.333 404:0.333 405:1.1109999 406:0.111 415:1 #
-0.075753964721239617 1:0.49399999 2:1 3:1 4:0.0049999999 5:0.333 7:1 43:0.015 44:1 50:1 57:0.28200001 58:0.035 87:0.42899999 94:1 102:4 #
-0.13293190673669297 1:0.36300001 2:1 3:0.579 4:0.050999999 5:0.61299998 8:1 43:0.083999999 44:1 52:1 57:-0.0089999996 58:7 63:1 87:0.40599999 91:0.333 92:0.2 93:0.667 94:0.333 97:0.2 98:0.14300001 99:0.60000002 101:0.25 102:0.333 104:0.5 106:1 109:1 129:1 133:0.26100001 134:0.112 139:1 163:0.21699999 166:1 167:0.667 168:0.5 170:0.5 173:0.125 174:0.25 175:0.125 177:0.28600001 178:0.25 190:1 #
-0.23177207723013935 1:0.38299999 2:1 3:0.49900001 4:0.19400001 5:0.41600001 11:1 17:1 43:0.47499999 44:1 48:1 58:1 63:1 87:0.36399999 91:1 95:1 100:0.5 101:0.5 102:0.5 108:1 109:1 112:1 128:1 133:0.061000001 134:0.63800001 138:1 163:0.333 167:1 176:3 177:1 #
-0.22662290028179669 1:0.509 2:1 3:0.96899998 4:0.015 5:0.5 8:1 43:0.029999999 44:1 48:1 57:-0.017999999 58:6 63:1 87:0.167 88:1 90:1 91:1 92:1 98:0.5 100:0.333 #
0.021411733888216794 1:0.292 2:1 3:1 4:0.0070000002 5:0.667 9:1 43:0.011 44:1 48:1 57:0.35800001 87:0.45300001 90:0.60000002 91:0.46200001 92:0.15800001 93:0.25 94:0.154 96:0.154 97:0.241 98:0.259 99:0.259 100:0.105 102:0.107 103:0.118 104:0.111 106:0.333 109:1 111:1 113:1 114:1 125:1 133:0.88599998 134:0.0040000002 163:0.185 164:0.082999997 165:0.5 166:0.667 167:0.83999997 168:0.205 169:0.28999999 170:0.037 171:0.133 172:0.079999998 173:0.07 174:0.153 175:0.211 176:0.115 177:0.171 178:0.093000002 179:0.054000001 181:0.077 184:0.111 185:1 186:1 188:1 190:1 202:1 209:0.81999999 210:0.0089999996 239:0.30000001 240:0.054000001 241:0.5 242:0.83700001 243:0.736 244:0.396 245:0.551 246:0.36500001 247:0.046999998 248:0.093999997 249:0.163 250:0.37099999 251:0.41800001 252:0.183 253:0.38600001 254:0.294 255:0.082000002 256:0.035999998 257:0.048999999 260:0.061999999 261:1 262:0.75 263:0.667 264:1 265:0.25 266:0.875 280:1 285:0.76700002 315:0.068000004 318:1 319:0.667 321:0.333 327:0.125 330:0.111 337:1 342:1 357:1 361:0.303 391:0.333 395:1 416:1 #
0.72790407897496201 1:0.266 2:1 3:1 4:0.0049999999 5:0.667 9:1 43:0.0070000002 44:1 49:1 57:0.736 58:0.003 87:0.27000001 90:1 97:0.28600001 100:0.167 106:0.5 109:1 126:1 133:0.56699997 134:0.0089999996 163:0.2 164:0.25 166:0.90899998 167:1 168:0.26899999 169:0.34799999 170:0.26699999 173:0.063000001 174:0.28999999 175:0.333 176:0.28600001 177:0.182 178:0.177 180:0.167 184:0.052999999 185:1 186:1 187:0.5 188:0.5 189:1 204:1 209:0.121 239:0.15899999 242:0.889 243:0.78600001 244:0.15000001 245:0.294 246:0.375 247:0.111 248:0.214 249:0.167 250:0.115 251:0.154 252:0.208 253:0.154 254:0.23999999 255:0.211 260:0.063000001 261:1 262:1 263:1 266:1 281:1 285:0.98900002 315:0.162 318:1 319:0.85699999 320:0.294 321:0.214 322:0.125 326:0.421 327:0.368 328:0.111 329:0.082999997 330:0.052999999 337:1 338:1 342:1 352:1 361:0.48500001 391:0.17399999 394:0.81800002 395:0.61500001 396:0.26899999 397:0.105 398:0.133 399:0.182 400:0.077 401:0.111 402:0.333 403:0.139 405:0.1 406:0.108 407:0.056000002 409:0.059 412:0.090999998 413:1 416:1 418:1 #
0.091111975197440742 1:0.294 2:1 3:0.63099998 4:0.0060000001 5:0.667 9:1 43:0.0099999998 44:1 49:1 57:1 58:0.0020000001 87:0.26699999 90:0.778 91:0.79000002 92:0.15000001 93:0.61500001 97:0.071000002 98:0.14300001 99:0.25 100:0.082999997 102:0.074000001 104:0.111 109:1 110:1 111:1 126:1 133:0.67699999 134:0.0060000001 163:0.54299998 166:0.46700001 167:0.25 168:0.044 169:0.60000002 173:0.074000001 174:0.14300001 175:0.51899999 176:0.23999999 178:0.17900001 182:0.182 187:0.667 188:1 189:1 190:0.5 204:1 209:0.40099999 239:0.34099999 240:0.14300001 241:1 242:1 243:0.5 244:0.45500001 245:0.63200003 246:0.38499999 248:0.2 249:0.25 250:0.36000001 251:0.667 252:0.211 253:0.23100001 254:0.25 255:0.118 256:0.333 257:0.2 260:0.077 261:1 281:1 285:0.39500001 315:0.098999999 318:1 319:1 320:0.046 321:0.35699999 322:0.14300001 325:0.082999997 326:0.039999999 327:0.23999999 328:0.086999997 329:0.050000001 330:0.079999998 335:0.333 337:1 339:1 342:1 352:1 361:0.40099999 391:0.375 394:0.75 395:0.60000002 396:0.333 397:0.667 402:0.25 403:0.40000001 405:0.80000001 406:0.5 416:1 418:1 #
